{"learner":{"attributes":{"scikit_learn":"{\"_estimator_type\": \"regressor\"}"},"feature_names":["mode count","mode index","gap width ","ring width","overall size","height","peak resonance wavelength"],"feature_types":["int","int","float","int","int","int","float"],"gradient_booster":{"model":{"gbtree_model_param":{"num_parallel_tree":"1","num_trees":"100"},"iteration_indptr":[0,1,2,3,4,5,6,7,8,9,10,11,12,13,14,15,16,17,18,19,20,21,22,23,24,25,26,27,28,29,30,31,32,33,34,35,36,37,38,39,40,41,42,43,44,45,46,47,48,49,50,51,52,53,54,55,56,57,58,59,60,61,62,63,64,65,66,67,68,69,70,71,72,73,74,75,76,77,78,79,80,81,82,83,84,85,86,87,88,89,90,91,92,93,94,95,96,97,98,99,100],"tree_info":[0,0,0,0,0,0,0,0,0,0,0,0,0,0,0,0,0,0,0,0,0,0,0,0,0,0,0,0,0,0,0,0,0,0,0,0,0,0,0,0,0,0,0,0,0,0,0,0,0,0,0,0,0,0,0,0,0,0,0,0,0,0,0,0,0,0,0,0,0,0,0,0,0,0,0,0,0,0,0,0,0,0,0,0,0,0,0,0,0,0,0,0,0,0,0,0,0,0,0,0],"trees":[{"base_weights":[4.2385525E-7,1.2926054E0,-9.048234E-1,6.8792236E-1,-2.4171345E-1],"categories":[],"categories_nodes":[],"categories_segments":[],"categories_sizes":[],"default_left":[0,0,0,0,0],"id":0,"left_children":[1,3,-1,-1,-1],"loss_changes":[3.8985977E1,1.6542664E1,0E0,0E0,0E0],"parents":[2147483647,0,0,1,1],"right_children":[2,4,-1,-1,-1],"split_conditions":[1.31996E1,9E1,-9.048234E-1,6.8792236E-1,-2.4171345E-1],"split_indices":[2,5,0,0,0],"split_type":[0,0,0,0,0],"sum_hessian":[8E0,6E0,2E0,4E0,2E0],"tree_param":{"num_deleted":"0","num_feature":"7","num_nodes":"5","size_leaf_vector":"1"}},{"base_weights":[-5.095694E-2,9.6856785E-1,-7.238588E-1,1.7427365E0,-1.9337074E-1,2.0907612E-1,6.622921E-1],"categories":[],"categories_nodes":[],"categories_segments":[],"categories_sizes":[],"default_left":[0,0,0,0,0,0,0],"id":1,"left_children":[1,3,-1,5,-1,-1,-1],"loss_changes":[2.4009212E1,9.865194E0,0E0,8.924694E-1,0E0,0E0,0E0],"parents":[2147483647,0,0,1,1,3,3],"right_children":[2,4,-1,6,-1,-1,-1],"split_conditions":[1.31996E1,9E1,-7.238588E-1,5E1,-1.9337074E-1,2.0907612E-1,6.622921E-1],"split_indices":[2,5,0,5,0,0,0],"split_type":[0,0,0,0,0,0,0],"sum_hessian":[8E0,6E0,2E0,4E0,2E0,2E0,2E0],"tree_param":{"num_deleted":"0","num_feature":"7","num_nodes":"7","size_leaf_vector":"1"}},{"base_weights":[-4.076555E-2,7.7485424E-1,-5.7908696E-1,1.3941891E0,-5.156552E-1,1.6726075E-1,5.2983385E-1,-1.8623672E-1,-4.5808125E-2],"categories":[],"categories_nodes":[],"categories_segments":[],"categories_sizes":[],"default_left":[0,0,0,0,0,0,0,0,0],"id":2,"left_children":[1,3,-1,5,7,-1,-1,-1,-1],"loss_changes":[1.5365895E1,6.313723E0,0E0,5.711851E-1,1.968795E-2,0E0,0E0,0E0,0E0],"parents":[2147483647,0,0,1,1,3,3,4,4],"right_children":[2,4,-1,6,8,-1,-1,-1,-1],"split_conditions":[1.31996E1,9E1,-5.7908696E-1,5E1,1E0,1.6726075E-1,5.2983385E-1,-1.8623672E-1,-4.5808125E-2],"split_indices":[2,5,0,5,1,0,0,0,0],"split_type":[0,0,0,0,0,0,0,0,0],"sum_hessian":[8E0,6E0,2E0,4E0,2E0,2E0,2E0,1E0,1E0],"tree_param":{"num_deleted":"0","num_feature":"7","num_nodes":"9","size_leaf_vector":"1"}},{"base_weights":[-4.1206997E-2,6.088332E-1,-4.6326956E-1,1.1153507E0,-4.3830714E-1,1.3380852E-1,4.2386687E-1,-1.5830126E-1,-3.893695E-2],"categories":[],"categories_nodes":[],"categories_segments":[],"categories_sizes":[],"default_left":[0,0,0,0,0,0,0,0,0],"id":3,"left_children":[1,3,-1,5,7,-1,-1,-1,-1],"loss_changes":[9.733418E0,4.2016306E0,0E0,3.6555767E-1,1.422447E-2,0E0,0E0,0E0,0E0],"parents":[2147483647,0,0,1,1,3,3,4,4],"right_children":[2,4,-1,6,8,-1,-1,-1,-1],"split_conditions":[1.31996E1,9E1,-4.6326956E-1,5E1,1E0,1.3380852E-1,4.2386687E-1,-1.5830126E-1,-3.893695E-2],"split_indices":[2,5,0,5,1,0,0,0,0],"split_type":[0,0,0,0,0,0,0,0,0],"sum_hessian":[8E0,6E0,2E0,4E0,2E0,2E0,2E0,1E0,1E0],"tree_param":{"num_deleted":"0","num_feature":"7","num_nodes":"9","size_leaf_vector":"1"}},{"base_weights":[-4.0270593E-2,4.7767448E-1,-3.7061566E-1,8.9228094E-1,-3.7256113E-1,4.264903E-1,4.1331655E-1,-1.3455606E-1,-3.309646E-2,1.4945012E-1,3.1719018E-2],"categories":[],"categories_nodes":[],"categories_segments":[],"categories_sizes":[],"default_left":[0,0,0,0,0,0,0,0,0,0,0],"id":4,"left_children":[1,3,-1,5,7,9,-1,-1,-1,-1,-1],"loss_changes":[6.1611476E0,2.8000216E0,0E0,5.429838E-1,1.0276973E-2,3.929299E-2,0E0,0E0,0E0,0E0,0E0],"parents":[2147483647,0,0,1,1,3,3,4,4,5,5],"right_children":[2,4,-1,6,8,10,-1,-1,-1,-1,-1],"split_conditions":[1.31996E1,9E1,-3.7061566E-1,1.038E3,1E0,2E0,4.1331655E-1,-1.3455606E-1,-3.309646E-2,1.4945012E-1,3.1719018E-2],"split_indices":[2,5,0,6,1,0,0,0,0,0,0],"split_type":[0,0,0,0,0,0,0,0,0,0,0],"sum_hessian":[8E0,6E0,2E0,4E0,2E0,3E0,1E0,1E0,1E0,2E0,1E0],"tree_param":{"num_deleted":"0","num_feature":"7","num_nodes":"11","size_leaf_vector":"1"}},{"base_weights":[-2.1943092E-2,3.9534813E-1,-2.964925E-1,7.434937E-1,-3.166771E-1,3.4383535E-1,3.5131904E-1,-1.14372686E-1,-2.813201E-2,1.19560055E-1,2.6961137E-2],"categories":[],"categories_nodes":[],"categories_segments":[],"categories_sizes":[],"default_left":[0,0,0,0,0,0,0,0,0,0,0],"id":5,"left_children":[1,3,-1,5,7,9,-1,-1,-1,-1,-1],"loss_changes":[4.020027E0,1.9706663E0,0E0,4.51756E-1,7.42507E-3,1.9749224E-2,0E0,0E0,0E0,0E0,0E0],"parents":[2147483647,0,0,1,1,3,3,4,4,5,5],"right_children":[2,4,-1,6,8,10,-1,-1,-1,-1,-1],"split_conditions":[1.31996E1,9E1,-2.964925E-1,1.038E3,1E0,2E0,3.5131904E-1,-1.14372686E-1,-2.813201E-2,1.19560055E-1,2.6961137E-2],"split_indices":[2,5,0,6,1,0,0,0,0,0,0],"split_type":[0,0,0,0,0,0,0,0,0,0,0],"sum_hessian":[8E0,6E0,2E0,4E0,2E0,3E0,1E0,1E0,1E0,2E0,1E0],"tree_param":{"num_deleted":"0","num_feature":"7","num_nodes":"11","size_leaf_vector":"1"}},{"base_weights":[-8.821911E-3,-5.3071404E-1,5.148346E-1,5.497227E-2,-2.2650391E-1,6.833968E-1,-2.3912145E-2,2.4759293E-1,2.986213E-1,8.849974E-2,2.291708E-2],"categories":[],"categories_nodes":[],"categories_segments":[],"categories_sizes":[],"default_left":[0,0,0,0,0,0,0,0,0,0,0],"id":6,"left_children":[1,3,5,-1,-1,7,-1,9,-1,-1,-1],"loss_changes":[2.7328596E0,9.39046E-1,5.5555797E-1,0E0,0E0,2.9744112E-1,0E0,1.8131286E-3,0E0,0E0,0E0],"parents":[2147483647,0,0,1,1,2,2,5,5,7,7],"right_children":[2,4,6,-1,-1,8,-1,10,-1,-1,-1],"split_conditions":[8.89E2,9E1,1E0,5.497227E-2,-2.2650391E-1,5E1,-2.3912145E-2,2E0,2.986213E-1,8.849974E-2,2.291708E-2],"split_indices":[6,4,1,0,0,5,0,0,0,0,0],"split_type":[0,0,0,0,0,0,0,0,0,0,0],"sum_hessian":[8E0,4E0,4E0,1E0,3E0,3E0,1E0,2E0,1E0,1E0,1E0],"tree_param":{"num_deleted":"0","num_feature":"7","num_nodes":"11","size_leaf_vector":"1"}},{"base_weights":[1.7668724E-2,2.9684994E-1,-1.9189312E-1,5.270119E-1,-5.5710986E-2,2.3571825E-1,2.5382796E-1,8.130093E-2,1.9479562E-2],"categories":[],"categories_nodes":[],"categories_segments":[],"categories_sizes":[],"default_left":[0,0,0,0,0,0,0,0,0],"id":7,"left_children":[1,3,-1,5,-1,7,-1,-1,-1],"loss_changes":[1.8414618E0,8.753254E-1,0E0,2.6529217E-1,0E0,6.507948E-3,0E0,0E0,0E0],"parents":[2147483647,0,0,1,1,3,3,5,5],"right_children":[2,4,-1,6,-1,8,-1,-1,-1],"split_conditions":[1.31996E1,9E1,-1.9189312E-1,1.038E3,-5.5710986E-2,2E0,2.5382796E-1,8.130093E-2,1.9479562E-2],"split_indices":[2,5,0,6,0,0,0,0,0],"split_type":[0,0,0,0,0,0,0,0,0],"sum_hessian":[8E0,6E0,2E0,4E0,2E0,3E0,1E0,2E0,1E0],"tree_param":{"num_deleted":"0","num_feature":"7","num_nodes":"9","size_leaf_vector":"1"}},{"base_weights":[2.4257554E-2,-3.3416635E-1,3.7782994E-1,3.4531403E-2,-4.7526026E-1,4.9223518E-1,-1.1968661E-2,-6.1118413E-2,-1.9347854E-1,1.7686081E-1,2.1575375E-1,6.3029766E-2,1.6557598E-2],"categories":[],"categories_nodes":[],"categories_segments":[],"categories_sizes":[],"default_left":[0,0,0,0,0,0,0,0,0,0,0,0,0],"id":8,"left_children":[1,3,5,-1,7,9,-1,-1,-1,11,-1,-1,-1],"loss_changes":[1.2668171E0,3.7165177E-1,2.585879E-1,0E0,5.2891552E-2,1.5909469E-1,0E0,0E0,0E0,5.364418E-4,0E0,0E0,0E0],"parents":[2147483647,0,0,1,1,2,2,4,4,5,5,9,9],"right_children":[2,4,6,-1,8,10,-1,-1,-1,12,-1,-1,-1],"split_conditions":[8.89E2,9E1,1E0,3.4531403E-2,1.59995E1,5E1,-1.1968661E-2,-6.1118413E-2,-1.9347854E-1,2E0,2.1575375E-1,6.3029766E-2,1.6557598E-2],"split_indices":[6,4,1,0,2,5,0,0,0,0,0,0,0],"split_type":[0,0,0,0,0,0,0,0,0,0,0,0,0],"sum_hessian":[8E0,4E0,4E0,1E0,3E0,3E0,1E0,2E0,1E0,2E0,1E0,1E0,1E0],"tree_param":{"num_deleted":"0","num_feature":"7","num_nodes":"13","size_leaf_vector":"1"}},{"base_weights":[2.4014367E-2,-2.7792948E-1,3.2115537E-1,2.9351808E-2,-3.9633155E-1,4.183998E-1,-1.0173369E-2,-4.889479E-2,-1.6445675E-1,1.503315E-1,1.8339072E-1,5.3575233E-2,1.4073945E-2],"categories":[],"categories_nodes":[],"categories_segments":[],"categories_sizes":[],"default_left":[0,0,0,0,0,0,0,0,0,0,0,0,0],"id":9,"left_children":[1,3,5,-1,7,9,-1,-1,-1,11,-1,-1,-1],"loss_changes":[8.9673764E-1,2.6123583E-1,1.8682975E-1,0E0,5.2397907E-2,1.14946306E-1,0E0,0E0,0E0,3.875643E-4,0E0,0E0,0E0],"parents":[2147483647,0,0,1,1,2,2,4,4,5,5,9,9],"right_children":[2,4,6,-1,8,10,-1,-1,-1,12,-1,-1,-1],"split_conditions":[8.89E2,9E1,1E0,2.9351808E-2,1.59995E1,5E1,-1.0173369E-2,-4.889479E-2,-1.6445675E-1,2E0,1.8339072E-1,5.3575233E-2,1.4073945E-2],"split_indices":[6,4,1,0,2,5,0,0,0,0,0,0,0],"split_type":[0,0,0,0,0,0,0,0,0,0,0,0,0],"sum_hessian":[8E0,4E0,4E0,1E0,3E0,3E0,1E0,2E0,1E0,2E0,1E0,1E0,1E0],"tree_param":{"num_deleted":"0","num_feature":"7","num_nodes":"13","size_leaf_vector":"1"}},{"base_weights":[2.3128403E-2,-2.313507E-1,2.7298182E-1,2.4948979E-2,-3.3077002E-1,3.5563946E-1,-8.647299E-3,-3.9115813E-2,-1.397883E-1,1.2778156E-1,1.5588199E-1,4.5538902E-2,1.1962796E-2],"categories":[],"categories_nodes":[],"categories_segments":[],"categories_sizes":[],"default_left":[0,0,0,0,0,0,0,0,0,0,0,0,0],"id":10,"left_children":[1,3,5,-1,7,9,-1,-1,-1,11,-1,-1,-1],"loss_changes":[6.353968E-1,1.8385172E-1,1.3498393E-1,0E0,4.7605604E-2,8.30487E-2,0E0,0E0,0E0,2.8007105E-4,0E0,0E0,0E0],"parents":[2147483647,0,0,1,1,2,2,4,4,5,5,9,9],"right_children":[2,4,6,-1,8,10,-1,-1,-1,12,-1,-1,-1],"split_conditions":[8.89E2,9E1,1E0,2.4948979E-2,1.59995E1,5E1,-8.647299E-3,-3.9115813E-2,-1.397883E-1,2E0,1.5588199E-1,4.5538902E-2,1.1962796E-2],"split_indices":[6,4,1,0,2,5,0,0,0,0,0,0,0],"split_type":[0,0,0,0,0,0,0,0,0,0,0,0,0],"sum_hessian":[8E0,4E0,4E0,1E0,3E0,3E0,1E0,2E0,1E0,2E0,1E0,1E0,1E0],"tree_param":{"num_deleted":"0","num_feature":"7","num_nodes":"13","size_leaf_vector":"1"}},{"base_weights":[2.1832254E-2,-1.9273624E-1,2.320343E-1,-4.2886972E-2,-1.18820004E-1,3.022933E-1,-7.3502543E-3,2.120676E-2,-3.129263E-2,1.0861397E-1,1.324997E-1,3.8707927E-2,1.0168362E-2],"categories":[],"categories_nodes":[],"categories_segments":[],"categories_sizes":[],"default_left":[0,0,0,0,0,0,0,0,0,0,0,0,0],"id":11,"left_children":[1,3,5,7,-1,9,-1,-1,-1,11,-1,-1,-1],"loss_changes":[4.5064604E-1,1.3535848E-1,9.7525954E-2,3.527771E-2,0E0,6.000313E-2,0E0,0E0,0E0,2.0232797E-4,0E0,0E0,0E0],"parents":[2147483647,0,0,1,1,2,2,3,3,5,5,9,9],"right_children":[2,4,6,8,-1,10,-1,-1,-1,12,-1,-1,-1],"split_conditions":[8.89E2,1.59995E1,1E0,9E1,-1.18820004E-1,5E1,-7.3502543E-3,2.120676E-2,-3.129263E-2,2E0,1.324997E-1,3.8707927E-2,1.0168362E-2],"split_indices":[6,2,1,4,0,5,0,0,0,0,0,0,0],"split_type":[0,0,0,0,0,0,0,0,0,0,0,0,0],"sum_hessian":[8E0,4E0,4E0,3E0,1E0,3E0,1E0,1E0,2E0,2E0,1E0,1E0,1E0],"tree_param":{"num_deleted":"0","num_feature":"7","num_nodes":"13","size_leaf_vector":"1"}},{"base_weights":[2.0296097E-2,-1.6069622E-1,1.9722919E-1,-3.254199E-2,-1.0099698E-1,2.5694942E-1,-6.2477593E-3,1.8025875E-2,-2.5034048E-2,9.232203E-2,1.1262474E-1,3.2901764E-2,8.64315E-3],"categories":[],"categories_nodes":[],"categories_segments":[],"categories_sizes":[],"default_left":[0,0,0,0,0,0,0,0,0,0,0,0,0],"id":12,"left_children":[1,3,5,7,-1,9,-1,-1,-1,11,-1,-1,-1],"loss_changes":[3.199058E-1,1.01794824E-1,7.0462674E-2,2.3874907E-2,0E0,4.3352097E-2,0E0,0E0,0E0,1.4615245E-4,0E0,0E0,0E0],"parents":[2147483647,0,0,1,1,2,2,3,3,5,5,9,9],"right_children":[2,4,6,8,-1,10,-1,-1,-1,12,-1,-1,-1],"split_conditions":[8.89E2,1.59995E1,1E0,9E1,-1.0099698E-1,5E1,-6.2477593E-3,1.8025875E-2,-2.5034048E-2,2E0,1.1262474E-1,3.2901764E-2,8.64315E-3],"split_indices":[6,2,1,4,0,5,0,0,0,0,0,0,0],"split_type":[0,0,0,0,0,0,0,0,0,0,0,0,0],"sum_hessian":[8E0,4E0,4E0,3E0,1E0,3E0,1E0,1E0,2E0,2E0,1E0,1E0,1E0],"tree_param":{"num_deleted":"0","num_feature":"7","num_nodes":"13","size_leaf_vector":"1"}},{"base_weights":[1.8642213E-2,9.251201E-2,-8.584743E-2,1.5599029E-1,-6.528187E-2,5.9547044E-2,9.5730975E-2,-2.4066212E-2,-5.310631E-3,8.4391594E-2,-5.9746746E-3,2.885895E-2,7.346535E-3],"categories":[],"categories_nodes":[],"categories_segments":[],"categories_sizes":[],"default_left":[0,0,0,0,0,0,0,0,0,0,0,0,0],"id":13,"left_children":[1,3,-1,5,7,9,-1,-1,-1,11,-1,-1,-1],"loss_changes":[2.291129E-1,9.031519E-2,0E0,7.53852E-2,7.122839E-4,1.1551775E-2,0E0,0E0,0E0,4.7289953E-4,0E0,0E0,0E0],"parents":[2147483647,0,0,1,1,3,3,4,4,5,5,9,9],"right_children":[2,4,-1,6,8,10,-1,-1,-1,12,-1,-1,-1],"split_conditions":[1.59995E1,9E1,-8.584743E-2,1.038E3,1E0,1.31996E1,9.5730975E-2,-2.4066212E-2,-5.310631E-3,2E0,-5.9746746E-3,2.885895E-2,7.346535E-3],"split_indices":[2,5,0,6,1,2,0,0,0,0,0,0,0],"split_type":[0,0,0,0,0,0,0,0,0,0,0,0,0],"sum_hessian":[8E0,7E0,1E0,5E0,2E0,4E0,1E0,1E0,1E0,3E0,1E0,2E0,1E0],"tree_param":{"num_deleted":"0","num_feature":"7","num_nodes":"13","size_leaf_vector":"1"}},{"base_weights":[1.4242702E-2,-1.1668243E-1,1.4231929E-1,-2.4235964E-2,-7.297025E-2,1.8542242E-1,-4.513979E-3,1.0993195E-2,-5.674394E-2,6.6404976E-2,8.137122E-2,-5.078459E-3,-2.0456314E-2,2.3637773E-2,6.244469E-3],"categories":[],"categories_nodes":[],"categories_segments":[],"categories_sizes":[],"default_left":[0,0,0,0,0,0,0,0,0,0,0,0,0,0,0],"id":14,"left_children":[1,3,5,7,-1,9,-1,-1,11,13,-1,-1,-1,-1,-1],"loss_changes":[1.6752218E-1,5.2601285E-2,3.6704786E-2,9.99566E-3,0E0,2.2842392E-2,0E0,0E0,2.1263119E-4,5.4195523E-5,0E0,0E0,0E0,0E0,0E0],"parents":[2147483647,0,0,1,1,2,2,3,3,5,5,8,8,9,9],"right_children":[2,4,6,8,-1,10,-1,-1,12,14,-1,-1,-1,-1,-1],"split_conditions":[8.89E2,1.59995E1,1E0,9E1,-7.297025E-2,5E1,-4.513979E-3,1.0993195E-2,2E0,2E0,8.137122E-2,-5.078459E-3,-2.0456314E-2,2.3637773E-2,6.244469E-3],"split_indices":[6,2,1,4,0,5,0,0,0,0,0,0,0,0,0],"split_type":[0,0,0,0,0,0,0,0,0,0,0,0,0,0,0],"sum_hessian":[8E0,4E0,4E0,3E0,1E0,3E0,1E0,1E0,2E0,2E0,1E0,1E0,1E0,1E0,1E0],"tree_param":{"num_deleted":"0","num_feature":"7","num_nodes":"15","size_leaf_vector":"1"}},{"base_weights":[1.2106154E-2,-9.918022E-2,1.209713E-1,-2.0600796E-2,-6.202469E-2,1.5760899E-1,-3.836918E-3,9.344101E-3,-4.8232395E-2,5.6444168E-2,6.916552E-2,-4.316712E-3,-1.7387867E-2,2.0092107E-2,5.30777E-3],"categories":[],"categories_nodes":[],"categories_segments":[],"categories_sizes":[],"default_left":[0,0,0,0,0,0,0,0,0,0,0,0,0,0,0],"id":15,"left_children":[1,3,5,7,-1,9,-1,-1,11,13,-1,-1,-1,-1,-1],"loss_changes":[1.2103482E-1,3.8004253E-2,2.6519254E-2,7.221793E-3,0E0,1.6503647E-2,0E0,0E0,1.5361654E-4,3.9170496E-5,0E0,0E0,0E0,0E0,0E0],"parents":[2147483647,0,0,1,1,2,2,3,3,5,5,8,8,9,9],"right_children":[2,4,6,8,-1,10,-1,-1,12,14,-1,-1,-1,-1,-1],"split_conditions":[8.89E2,1.59995E1,1E0,9E1,-6.202469E-2,5E1,-3.836918E-3,9.344101E-3,2E0,2E0,6.916552E-2,-4.316712E-3,-1.7387867E-2,2.0092107E-2,5.30777E-3],"split_indices":[6,2,1,4,0,5,0,0,0,0,0,0,0,0,0],"split_type":[0,0,0,0,0,0,0,0,0,0,0,0,0,0,0],"sum_hessian":[8E0,4E0,4E0,3E0,1E0,3E0,1E0,1E0,2E0,2E0,1E0,1E0,1E0,1E0,1E0],"tree_param":{"num_deleted":"0","num_feature":"7","num_nodes":"15","size_leaf_vector":"1"}},{"base_weights":[1.029004E-2,-8.430328E-2,1.0282536E-1,-1.7510891E-2,-5.272093E-2,1.339674E-1,-3.2614232E-3,7.942487E-3,-4.099782E-2,4.7977448E-2,5.879059E-2,-3.6692622E-3,-1.4779759E-2,1.7078305E-2,4.5115473E-3],"categories":[],"categories_nodes":[],"categories_segments":[],"categories_sizes":[],"default_left":[0,0,0,0,0,0,0,0,0,0,0,0,0,0,0],"id":16,"left_children":[1,3,5,7,-1,9,-1,-1,11,13,-1,-1,-1,-1,-1],"loss_changes":[8.744752E-2,2.745789E-2,1.9160166E-2,5.2177855E-3,0E0,1.1923857E-2,0E0,0E0,1.1097407E-4,2.8327107E-5,0E0,0E0,0E0,0E0,0E0],"parents":[2147483647,0,0,1,1,2,2,3,3,5,5,8,8,9,9],"right_children":[2,4,6,8,-1,10,-1,-1,12,14,-1,-1,-1,-1,-1],"split_conditions":[8.89E2,1.59995E1,1E0,9E1,-5.272093E-2,5E1,-3.2614232E-3,7.942487E-3,2E0,2E0,5.879059E-2,-3.6692622E-3,-1.4779759E-2,1.7078305E-2,4.5115473E-3],"split_indices":[6,2,1,4,0,5,0,0,0,0,0,0,0,0,0],"split_type":[0,0,0,0,0,0,0,0,0,0,0,0,0,0,0],"sum_hessian":[8E0,4E0,4E0,3E0,1E0,3E0,1E0,1E0,2E0,2E0,1E0,1E0,1E0,1E0,1E0],"tree_param":{"num_deleted":"0","num_feature":"7","num_nodes":"15","size_leaf_vector":"1"}},{"base_weights":[8.746783E-3,-7.165756E-2,8.740177E-2,-1.4883995E-2,-4.4812776E-2,1.1387253E-1,-2.7721883E-3,6.751156E-3,-3.4847897E-2,4.078102E-2,4.997206E-2,-3.1188012E-3,-1.2562753E-2,1.45165445E-2,3.8349153E-3],"categories":[],"categories_nodes":[],"categories_segments":[],"categories_sizes":[],"default_left":[0,0,0,0,0,0,0,0,0,0,0,0,0,0,0],"id":17,"left_children":[1,3,5,7,-1,9,-1,-1,11,13,-1,-1,-1,-1,-1],"loss_changes":[6.318083E-2,1.9838434E-2,1.3843238E-2,3.7698408E-3,0E0,8.614942E-3,0E0,0E0,8.019805E-5,2.042763E-5,0E0,0E0,0E0,0E0,0E0],"parents":[2147483647,0,0,1,1,2,2,3,3,5,5,8,8,9,9],"right_children":[2,4,6,8,-1,10,-1,-1,12,14,-1,-1,-1,-1,-1],"split_conditions":[8.89E2,1.59995E1,1E0,9E1,-4.4812776E-2,5E1,-2.7721883E-3,6.751156E-3,2E0,2E0,4.997206E-2,-3.1188012E-3,-1.2562753E-2,1.45165445E-2,3.8349153E-3],"split_indices":[6,2,1,4,0,5,0,0,0,0,0,0,0,0,0],"split_type":[0,0,0,0,0,0,0,0,0,0,0,0,0,0,0],"sum_hessian":[8E0,4E0,4E0,3E0,1E0,3E0,1E0,1E0,2E0,2E0,1E0,1E0,1E0,1E0,1E0],"tree_param":{"num_deleted":"0","num_feature":"7","num_nodes":"15","size_leaf_vector":"1"}},{"base_weights":[7.434527E-3,-6.090908E-2,7.429123E-2,-1.2651682E-2,-3.8090803E-2,9.679127E-2,-2.3563385E-3,5.738354E-3,-2.9620806E-2,3.4663517E-2,4.2476177E-2,-2.651024E-3,-1.067834E-2,1.233902E-2,3.2595636E-3],"categories":[],"categories_nodes":[],"categories_segments":[],"categories_sizes":[],"default_left":[0,0,0,0,0,0,0,0,0,0,0,0,0,0,0],"id":18,"left_children":[1,3,5,7,-1,9,-1,-1,11,13,-1,-1,-1,-1,-1],"loss_changes":[4.5648064E-2,1.4333107E-2,1.0001648E-2,2.7236652E-3,0E0,6.2243827E-3,0E0,0E0,5.7931524E-5,1.4791731E-5,0E0,0E0,0E0,0E0,0E0],"parents":[2147483647,0,0,1,1,2,2,3,3,5,5,8,8,9,9],"right_children":[2,4,6,8,-1,10,-1,-1,12,14,-1,-1,-1,-1,-1],"split_conditions":[8.89E2,1.59995E1,1E0,9E1,-3.8090803E-2,5E1,-2.3563385E-3,5.738354E-3,2E0,2E0,4.2476177E-2,-2.651024E-3,-1.067834E-2,1.233902E-2,3.2595636E-3],"split_indices":[6,2,1,4,0,5,0,0,0,0,0,0,0,0,0],"split_type":[0,0,0,0,0,0,0,0,0,0,0,0,0,0,0],"sum_hessian":[8E0,4E0,4E0,3E0,1E0,3E0,1E0,1E0,2E0,2E0,1E0,1E0,1E0,1E0,1E0],"tree_param":{"num_deleted":"0","num_feature":"7","num_nodes":"15","size_leaf_vector":"1"}},{"base_weights":[6.319258E-3,-5.177288E-2,6.3147545E-2,-1.0754108E-2,-3.23772E-2,8.227253E-2,-2.0028593E-3,4.8774723E-3,-2.5177637E-2,2.9464087E-2,3.610468E-2,-2.2533417E-3,-9.076595E-3,1.0488224E-2,2.7706148E-3],"categories":[],"categories_nodes":[],"categories_segments":[],"categories_sizes":[],"default_left":[0,0,0,0,0,0,0,0,0,0,0,0,0,0,0],"id":19,"left_children":[1,3,5,7,-1,9,-1,-1,11,13,-1,-1,-1,-1,-1],"loss_changes":[3.2980822E-2,1.035562E-2,7.226156E-3,1.9677975E-3,0E0,4.4970494E-3,0E0,0E0,4.18626E-5,1.0695076E-5,0E0,0E0,0E0,0E0,0E0],"parents":[2147483647,0,0,1,1,2,2,3,3,5,5,8,8,9,9],"right_children":[2,4,6,8,-1,10,-1,-1,12,14,-1,-1,-1,-1,-1],"split_conditions":[8.89E2,1.59995E1,1E0,9E1,-3.23772E-2,5E1,-2.0028593E-3,4.8774723E-3,2E0,2E0,3.610468E-2,-2.2533417E-3,-9.076595E-3,1.0488224E-2,2.7706148E-3],"split_indices":[6,2,1,4,0,5,0,0,0,0,0,0,0,0,0],"split_type":[0,0,0,0,0,0,0,0,0,0,0,0,0,0,0],"sum_hessian":[8E0,4E0,4E0,3E0,1E0,3E0,1E0,1E0,2E0,2E0,1E0,1E0,1E0,1E0,1E0],"tree_param":{"num_deleted":"0","num_feature":"7","num_nodes":"15","size_leaf_vector":"1"}},{"base_weights":[5.371412E-3,-4.4006728E-2,5.367527E-2,-9.14073E-3,-2.752061E-2,6.993151E-2,-1.7024517E-3,4.1459086E-3,-2.140077E-2,2.5044123E-2,3.068905E-2,-1.9153119E-3,-7.7150348E-3,8.9149475E-3,2.354908E-3],"categories":[],"categories_nodes":[],"categories_segments":[],"categories_sizes":[],"default_left":[0,0,0,0,0,0,0,0,0,0,0,0,0,0,0],"id":20,"left_children":[1,3,5,7,-1,9,-1,-1,11,13,-1,-1,-1,-1,-1],"loss_changes":[2.3828465E-2,7.4820053E-3,5.2208984E-3,1.421735E-3,0E0,3.249243E-3,0E0,0E0,3.0247378E-5,7.750699E-6,0E0,0E0,0E0,0E0,0E0],"parents":[2147483647,0,0,1,1,2,2,3,3,5,5,8,8,9,9],"right_children":[2,4,6,8,-1,10,-1,-1,12,14,-1,-1,-1,-1,-1],"split_conditions":[8.89E2,1.59995E1,1E0,9E1,-2.752061E-2,5E1,-1.7024517E-3,4.1459086E-3,2E0,2E0,3.068905E-2,-1.9153119E-3,-7.7150348E-3,8.9149475E-3,2.354908E-3],"split_indices":[6,2,1,4,0,5,0,0,0,0,0,0,0,0,0],"split_type":[0,0,0,0,0,0,0,0,0,0,0,0,0,0,0],"sum_hessian":[8E0,4E0,4E0,3E0,1E0,3E0,1E0,1E0,2E0,2E0,1E0,1E0,1E0,1E0,1E0],"tree_param":{"num_deleted":"0","num_feature":"7","num_nodes":"15","size_leaf_vector":"1"}},{"base_weights":[4.565451E-3,-3.7405968E-2,4.562378E-2,-7.769823E-3,-2.3392582E-2,5.9441566E-2,-1.4471054E-3,3.523922E-3,-1.8190702E-2,2.1287283E-2,2.6085664E-2,-1.6280651E-3,-6.557751E-3,7.5777057E-3,2.0015717E-3],"categories":[],"categories_nodes":[],"categories_segments":[],"categories_sizes":[],"default_left":[0,0,0,0,0,0,0,0,0,0,0,0,0,0,0],"id":21,"left_children":[1,3,5,7,-1,9,-1,-1,11,13,-1,-1,-1,-1,-1],"loss_changes":[1.7216086E-2,5.405735E-3,3.7720893E-3,1.0271803E-3,0E0,2.3476193E-3,0E0,0E0,2.1843822E-5,5.619484E-6,0E0,0E0,0E0,0E0,0E0],"parents":[2147483647,0,0,1,1,2,2,3,3,5,5,8,8,9,9],"right_children":[2,4,6,8,-1,10,-1,-1,12,14,-1,-1,-1,-1,-1],"split_conditions":[8.89E2,1.59995E1,1E0,9E1,-2.3392582E-2,5E1,-1.4471054E-3,3.523922E-3,2E0,2E0,2.6085664E-2,-1.6280651E-3,-6.557751E-3,7.5777057E-3,2.0015717E-3],"split_indices":[6,2,1,4,0,5,0,0,0,0,0,0,0,0,0],"split_type":[0,0,0,0,0,0,0,0,0,0,0,0,0,0,0],"sum_hessian":[8E0,4E0,4E0,3E0,1E0,3E0,1E0,1E0,2E0,2E0,1E0,1E0,1E0,1E0,1E0],"tree_param":{"num_deleted":"0","num_feature":"7","num_nodes":"15","size_leaf_vector":"1"}},{"base_weights":[3.8806067E-3,-3.179531E-2,3.8780402E-2,-6.6046715E-3,-1.9883681E-2,5.0525665E-2,-1.2300969E-3,2.995205E-3,-1.5462239E-2,1.8094381E-2,2.2172928E-2,-1.3838769E-3,-5.5741314E-3,6.4410213E-3,1.7014504E-3],"categories":[],"categories_nodes":[],"categories_segments":[],"categories_sizes":[],"default_left":[0,0,0,0,0,0,0,0,0,0,0,0,0,0,0],"id":22,"left_children":[1,3,5,7,-1,9,-1,-1,11,13,-1,-1,-1,-1,-1],"loss_changes":[1.2438776E-2,3.9055725E-3,2.725399E-3,7.4211694E-4,0E0,1.6961535E-3,0E0,0E0,1.5780854E-5,4.0398445E-6,0E0,0E0,0E0,0E0,0E0],"parents":[2147483647,0,0,1,1,2,2,3,3,5,5,8,8,9,9],"right_children":[2,4,6,8,-1,10,-1,-1,12,14,-1,-1,-1,-1,-1],"split_conditions":[8.89E2,1.59995E1,1E0,9E1,-1.9883681E-2,5E1,-1.2300969E-3,2.995205E-3,2E0,2E0,2.2172928E-2,-1.3838769E-3,-5.5741314E-3,6.4410213E-3,1.7014504E-3],"split_indices":[6,2,1,4,0,5,0,0,0,0,0,0,0,0,0],"split_type":[0,0,0,0,0,0,0,0,0,0,0,0,0,0,0],"sum_hessian":[8E0,4E0,4E0,3E0,1E0,3E0,1E0,1E0,2E0,2E0,1E0,1E0,1E0,1E0,1E0],"tree_param":{"num_deleted":"0","num_feature":"7","num_nodes":"15","size_leaf_vector":"1"}},{"base_weights":[3.2986535E-3,-2.7025795E-2,3.2963373E-2,-5.613804E-3,-1.6901065E-2,4.2946815E-2,-1.0455609E-3,2.5460245E-3,-1.3142903E-2,1.5380223E-2,1.8846989E-2,-1.1763097E-3,-4.7379974E-3,5.474854E-3,1.4462471E-3],"categories":[],"categories_nodes":[],"categories_segments":[],"categories_sizes":[],"default_left":[0,0,0,0,0,0,0,0,0,0,0,0,0,0,0],"id":23,"left_children":[1,3,5,7,-1,9,-1,-1,11,13,-1,-1,-1,-1,-1],"loss_changes":[8.986957E-3,2.821779E-3,1.9690893E-3,5.361983E-4,0E0,1.2254706E-3,0E0,0E0,1.13994465E-5,2.9162038E-6,0E0,0E0,0E0,0E0,0E0],"parents":[2147483647,0,0,1,1,2,2,3,3,5,5,8,8,9,9],"right_children":[2,4,6,8,-1,10,-1,-1,12,14,-1,-1,-1,-1,-1],"split_conditions":[8.89E2,1.59995E1,1E0,9E1,-1.6901065E-2,5E1,-1.0455609E-3,2.5460245E-3,2E0,2E0,1.8846989E-2,-1.1763097E-3,-4.7379974E-3,5.474854E-3,1.4462471E-3],"split_indices":[6,2,1,4,0,5,0,0,0,0,0,0,0,0,0],"split_type":[0,0,0,0,0,0,0,0,0,0,0,0,0,0,0],"sum_hessian":[8E0,4E0,4E0,3E0,1E0,3E0,1E0,1E0,2E0,2E0,1E0,1E0,1E0,1E0,1E0],"tree_param":{"num_deleted":"0","num_feature":"7","num_nodes":"15","size_leaf_vector":"1"}},{"base_weights":[2.8039084E-3,-2.2972107E-2,2.8019141E-2,-4.771948E-3,-1.4365912E-2,3.6505222E-2,-8.887768E-4,2.164078E-3,-1.11716585E-2,1.3073604E-2,1.6020013E-2,-9.999275E-4,-4.027319E-3,4.65374E-3,1.2293817E-3],"categories":[],"categories_nodes":[],"categories_segments":[],"categories_sizes":[],"default_left":[0,0,0,0,0,0,0,0,0,0,0,0,0,0,0],"id":24,"left_children":[1,3,5,7,-1,9,-1,-1,11,13,-1,-1,-1,-1,-1],"loss_changes":[6.493193E-3,2.0387068E-3,1.4227172E-3,3.8740376E-4,0E0,8.853609E-4,0E0,0E0,8.229981E-6,2.1021697E-6,0E0,0E0,0E0,0E0,0E0],"parents":[2147483647,0,0,1,1,2,2,3,3,5,5,8,8,9,9],"right_children":[2,4,6,8,-1,10,-1,-1,12,14,-1,-1,-1,-1,-1],"split_conditions":[8.89E2,1.59995E1,1E0,9E1,-1.4365912E-2,5E1,-8.887768E-4,2.164078E-3,2E0,2E0,1.6020013E-2,-9.999275E-4,-4.027319E-3,4.65374E-3,1.2293817E-3],"split_indices":[6,2,1,4,0,5,0,0,0,0,0,0,0,0,0],"split_type":[0,0,0,0,0,0,0,0,0,0,0,0,0,0,0],"sum_hessian":[8E0,4E0,4E0,3E0,1E0,3E0,1E0,1E0,2E0,2E0,1E0,1E0,1E0,1E0,1E0],"tree_param":{"num_deleted":"0","num_feature":"7","num_nodes":"15","size_leaf_vector":"1"}},{"base_weights":[2.3832321E-3,-1.9526292E-2,2.3816109E-2,-4.0562153E-3,-1.2210989E-2,3.1029224E-2,-7.5545313E-4,1.8393517E-3,-9.495735E-3,1.1112213E-2,1.361704E-2,-8.498669E-4,-3.4232142E-3,3.9556506E-3,1.0448457E-3],"categories":[],"categories_nodes":[],"categories_segments":[],"categories_sizes":[],"default_left":[0,0,0,0,0,0,0,0,0,0,0,0,0,0,0],"id":25,"left_children":[1,3,5,7,-1,9,-1,-1,11,13,-1,-1,-1,-1,-1],"loss_changes":[4.6912977E-3,1.4729479E-3,1.0278984E-3,2.79878E-4,0E0,6.397206E-4,0E0,0E0,5.9523154E-6,1.5310943E-6,0E0,0E0,0E0,0E0,0E0],"parents":[2147483647,0,0,1,1,2,2,3,3,5,5,8,8,9,9],"right_children":[2,4,6,8,-1,10,-1,-1,12,14,-1,-1,-1,-1,-1],"split_conditions":[8.89E2,1.59995E1,1E0,9E1,-1.2210989E-2,5E1,-7.5545313E-4,1.8393517E-3,2E0,2E0,1.361704E-2,-8.498669E-4,-3.4232142E-3,3.9556506E-3,1.0448457E-3],"split_indices":[6,2,1,4,0,5,0,0,0,0,0,0,0,0,0],"split_type":[0,0,0,0,0,0,0,0,0,0,0,0,0,0,0],"sum_hessian":[8E0,4E0,4E0,3E0,1E0,3E0,1E0,1E0,2E0,2E0,1E0,1E0,1E0,1E0,1E0],"tree_param":{"num_deleted":"0","num_feature":"7","num_nodes":"15","size_leaf_vector":"1"}},{"base_weights":[2.0258161E-3,-1.6597176E-2,2.0243645E-2,-3.4475327E-3,-1.0379363E-2,2.6374817E-2,-6.4215664E-4,1.5635492E-3,-8.071263E-3,9.44519E-3,1.1574555E-2,-7.224083E-4,-2.9096603E-3,3.3622743E-3,8.8806154E-4],"categories":[],"categories_nodes":[],"categories_segments":[],"categories_sizes":[],"default_left":[0,0,0,0,0,0,0,0,0,0,0,0,0,0,0],"id":26,"left_children":[1,3,5,7,-1,9,-1,-1,11,13,-1,-1,-1,-1,-1],"loss_changes":[3.3894214E-3,1.0642364E-3,7.42662E-4,2.0222031E-4,0E0,4.622289E-4,0E0,0E0,4.2973697E-6,1.1104858E-6,0E0,0E0,0E0,0E0,0E0],"parents":[2147483647,0,0,1,1,2,2,3,3,5,5,8,8,9,9],"right_children":[2,4,6,8,-1,10,-1,-1,12,14,-1,-1,-1,-1,-1],"split_conditions":[8.89E2,1.59995E1,1E0,9E1,-1.0379363E-2,5E1,-6.4215664E-4,1.5635492E-3,2E0,2E0,1.1574555E-2,-7.224083E-4,-2.9096603E-3,3.3622743E-3,8.8806154E-4],"split_indices":[6,2,1,4,0,5,0,0,0,0,0,0,0,0,0],"split_type":[0,0,0,0,0,0,0,0,0,0,0,0,0,0,0],"sum_hessian":[8E0,4E0,4E0,3E0,1E0,3E0,1E0,1E0,2E0,2E0,1E0,1E0,1E0,1E0,1E0],"tree_param":{"num_deleted":"0","num_feature":"7","num_nodes":"15","size_leaf_vector":"1"}},{"base_weights":[1.721806E-3,-1.4107704E-2,1.7206956E-2,-2.9306412E-3,-8.822394E-3,2.2418499E-2,-5.458832E-4,1.3289452E-3,-6.860733E-3,2.4084093E-3,9.838486E-3,-6.141186E-4,-2.4732114E-3],"categories":[],"categories_nodes":[],"categories_segments":[],"categories_sizes":[],"default_left":[0,0,0,0,0,0,0,0,0,0,0,0,0],"id":27,"left_children":[1,3,5,7,-1,9,-1,-1,11,-1,-1,-1,-1],"loss_changes":[2.4488517E-3,7.688764E-4,5.3658185E-4,1.4610091E-4,0E0,3.340093E-4,0E0,0E0,3.100271E-6,0E0,0E0,0E0,0E0],"parents":[2147483647,0,0,1,1,2,2,3,3,5,5,8,8],"right_children":[2,4,6,8,-1,10,-1,-1,12,-1,-1,-1,-1],"split_conditions":[8.89E2,1.59995E1,1E0,9E1,-8.822394E-3,5E1,-5.458832E-4,1.3289452E-3,2E0,2.4084093E-3,9.838486E-3,-6.141186E-4,-2.4732114E-3],"split_indices":[6,2,1,4,0,5,0,0,0,0,0,0,0],"split_type":[0,0,0,0,0,0,0,0,0,0,0,0,0],"sum_hessian":[8E0,4E0,4E0,3E0,1E0,3E0,1E0,1E0,2E0,2E0,1E0,1E0,1E0],"tree_param":{"num_deleted":"0","num_feature":"7","num_nodes":"13","size_leaf_vector":"1"}},{"base_weights":[1.3295279E-3,-1.1991692E-2,1.4384842E-2,-2.4912357E-3,-7.4990275E-3,1.8754482E-2,-4.6405793E-4,1.1295319E-3,-5.8317184E-3,6.422043E-3,8.36277E-3,-5.219937E-4,-2.1022798E-3,2.4965287E-3,3.9339068E-4],"categories":[],"categories_nodes":[],"categories_segments":[],"categories_sizes":[],"default_left":[0,0,0,0,0,0,0,0,0,0,0,0,0,0,0],"id":28,"left_children":[1,3,5,7,-1,9,-1,-1,11,13,-1,-1,-1,-1,-1],"loss_changes":[1.7377129E-3,5.554974E-4,3.7708972E-4,1.0555385E-4,0E0,2.709371E-4,0E0,0E0,2.2411114E-6,1.821456E-5,0E0,0E0,0E0,0E0,0E0],"parents":[2147483647,0,0,1,1,2,2,3,3,5,5,8,8,9,9],"right_children":[2,4,6,8,-1,10,-1,-1,12,14,-1,-1,-1,-1,-1],"split_conditions":[8.89E2,1.59995E1,1E0,9E1,-7.4990275E-3,5E1,-4.6405793E-4,1.1295319E-3,2E0,2E0,8.36277E-3,-5.219937E-4,-2.1022798E-3,2.4965287E-3,3.9339068E-4],"split_indices":[6,2,1,4,0,5,0,0,0,0,0,0,0,0,0],"split_type":[0,0,0,0,0,0,0,0,0,0,0,0,0,0,0],"sum_hessian":[8E0,4E0,4E0,3E0,1E0,3E0,1E0,1E0,2E0,2E0,1E0,1E0,1E0,1E0,1E0],"tree_param":{"num_deleted":"0","num_feature":"7","num_nodes":"15","size_leaf_vector":"1"}},{"base_weights":[1.13021E-3,-1.0193062E-2,1.222744E-2,-2.1176338E-3,-6.374216E-3,1.594162E-2,-3.9439203E-4,9.6015935E-4,-4.957199E-3,5.458832E-3,7.108498E-3,-4.4374468E-4,-1.786995E-3,2.1220208E-3,3.344536E-4],"categories":[],"categories_nodes":[],"categories_segments":[],"categories_sizes":[],"default_left":[0,0,0,0,0,0,0,0,0,0,0,0,0,0,0],"id":29,"left_children":[1,3,5,7,-1,9,-1,-1,11,13,-1,-1,-1,-1,-1],"loss_changes":[1.2555476E-3,4.0134788E-4,2.7244608E-4,7.627077E-5,0E0,1.9576086E-4,0E0,0E0,1.6176491E-6,1.3155273E-5,0E0,0E0,0E0,0E0,0E0],"parents":[2147483647,0,0,1,1,2,2,3,3,5,5,8,8,9,9],"right_children":[2,4,6,8,-1,10,-1,-1,12,14,-1,-1,-1,-1,-1],"split_conditions":[8.89E2,1.59995E1,1E0,9E1,-6.374216E-3,5E1,-3.9439203E-4,9.6015935E-4,2E0,2E0,7.108498E-3,-4.4374468E-4,-1.786995E-3,2.1220208E-3,3.344536E-4],"split_indices":[6,2,1,4,0,5,0,0,0,0,0,0,0,0,0],"split_type":[0,0,0,0,0,0,0,0,0,0,0,0,0,0,0],"sum_hessian":[8E0,4E0,4E0,3E0,1E0,3E0,1E0,1E0,2E0,2E0,1E0,1E0,1E0,1E0,1E0],"tree_param":{"num_deleted":"0","num_feature":"7","num_nodes":"15","size_leaf_vector":"1"}},{"base_weights":[9.607739E-4,-8.66394E-3,1.0393334E-2,-1.7998219E-3,-5.418062E-3,1.35502815E-2,-3.3516885E-4,8.1624987E-4,-4.213651E-3,4.6399436E-3,6.0421946E-3,-3.772259E-4,-1.5189172E-3,1.8035889E-3,2.843857E-4],"categories":[],"categories_nodes":[],"categories_segments":[],"categories_sizes":[],"default_left":[0,0,0,0,0,0,0,0,0,0,0,0,0,0,0],"id":30,"left_children":[1,3,5,7,-1,9,-1,-1,11,13,-1,-1,-1,-1,-1],"loss_changes":[9.0711843E-4,2.8998026E-4,1.9683002E-4,5.5112992E-5,0E0,1.414381E-4,0E0,0E0,1.1667325E-6,9.497395E-6,0E0,0E0,0E0,0E0,0E0],"parents":[2147483647,0,0,1,1,2,2,3,3,5,5,8,8,9,9],"right_children":[2,4,6,8,-1,10,-1,-1,12,14,-1,-1,-1,-1,-1],"split_conditions":[8.89E2,1.59995E1,1E0,9E1,-5.418062E-3,5E1,-3.3516885E-4,8.1624987E-4,2E0,2E0,6.0421946E-3,-3.772259E-4,-1.5189172E-3,1.8035889E-3,2.843857E-4],"split_indices":[6,2,1,4,0,5,0,0,0,0,0,0,0,0,0],"split_type":[0,0,0,0,0,0,0,0,0,0,0,0,0,0,0],"sum_hessian":[8E0,4E0,4E0,3E0,1E0,3E0,1E0,1E0,2E0,2E0,1E0,1E0,1E0,1E0,1E0],"tree_param":{"num_deleted":"0","num_feature":"7","num_nodes":"15","size_leaf_vector":"1"}},{"base_weights":[8.1655715E-4,-7.364273E-3,8.834076E-3,-1.5296936E-3,-4.6053887E-3,1.1517525E-2,-2.849579E-4,6.9379807E-4,-1.0744095E-3,3.9437613E-3,5.1358226E-3,1.5329361E-3,2.4175645E-4],"categories":[],"categories_nodes":[],"categories_segments":[],"categories_sizes":[],"default_left":[0,0,0,0,0,0,0,0,0,0,0,0,0],"id":31,"left_children":[1,3,5,7,-1,9,-1,-1,-1,11,-1,-1,-1],"loss_changes":[6.5536617E-4,2.095218E-4,1.4221354E-4,3.9815466E-5,0E0,1.0219443E-4,0E0,0E0,0E0,6.8588924E-6,0E0,0E0,0E0],"parents":[2147483647,0,0,1,1,2,2,3,3,5,5,9,9],"right_children":[2,4,6,8,-1,10,-1,-1,-1,12,-1,-1,-1],"split_conditions":[8.89E2,1.59995E1,1E0,9E1,-4.6053887E-3,5E1,-2.849579E-4,6.9379807E-4,-1.0744095E-3,2E0,5.1358226E-3,1.5329361E-3,2.4175645E-4],"split_indices":[6,2,1,4,0,5,0,0,0,0,0,0,0],"split_type":[0,0,0,0,0,0,0,0,0,0,0,0,0],"sum_hessian":[8E0,4E0,4E0,3E0,1E0,3E0,1E0,1E0,2E0,2E0,1E0,1E0,1E0],"tree_param":{"num_deleted":"0","num_feature":"7","num_nodes":"13","size_leaf_vector":"1"}},{"base_weights":[7.5361464E-4,4.1099787E-3,-3.9145947E-3,7.00442E-3,-3.0488968E-3,2.5848388E-3,4.365349E-3,-1.129818E-3,-2.421856E-4,3.4966469E-3,-1.5935898E-4,1.2617111E-3,2.0542146E-4],"categories":[],"categories_nodes":[],"categories_segments":[],"categories_sizes":[],"default_left":[0,0,0,0,0,0,0,0,0,0,0,0,0],"id":32,"left_children":[1,3,-1,5,7,9,-1,-1,-1,11,-1,-1,-1],"loss_changes":[4.7055844E-4,1.8712331E-4,0E0,1.6250822E-4,1.7825187E-6,1.6063535E-5,0E0,0E0,0E0,5.0954077E-6,0E0,0E0,0E0],"parents":[2147483647,0,0,1,1,3,3,4,4,5,5,9,9],"right_children":[2,4,-1,6,8,10,-1,-1,-1,12,-1,-1,-1],"split_conditions":[1.59995E1,9E1,-3.9145947E-3,1.038E3,1E0,1.31996E1,4.365349E-3,-1.129818E-3,-2.421856E-4,2E0,-1.5935898E-4,1.2617111E-3,2.0542146E-4],"split_indices":[2,5,0,6,1,2,0,0,0,0,0,0,0],"split_type":[0,0,0,0,0,0,0,0,0,0,0,0,0],"sum_hessian":[8E0,7E0,1E0,5E0,2E0,4E0,1E0,1E0,1E0,3E0,1E0,2E0,1E0],"tree_param":{"num_deleted":"0","num_feature":"7","num_nodes":"13","size_leaf_vector":"1"}},{"base_weights":[5.701913E-4,-5.3638457E-3,6.39019E-3,-1.1591911E-3,-3.32737E-3,8.330822E-3,-2.058506E-4,5.8841705E-4,-9.6030236E-4,2.8622944E-3,3.7104608E-3,4.0025712E-4,-1.3546944E-4,1.1135102E-3,1.745224E-4],"categories":[],"categories_nodes":[],"categories_segments":[],"categories_sizes":[],"default_left":[0,0,0,0,0,0,0,0,0,0,0,0,0,0,0],"id":33,"left_children":[1,3,5,7,-1,9,-1,11,-1,13,-1,-1,-1,-1,-1],"loss_changes":[3.451008E-4,1.0755155E-4,7.437938E-5,1.6156711E-5,0E0,5.2912656E-5,0E0,2.9292455E-6,0E0,3.652096E-6,0E0,0E0,0E0,0E0,0E0],"parents":[2147483647,0,0,1,1,2,2,3,3,5,5,7,7,9,9],"right_children":[2,4,6,8,-1,10,-1,12,-1,14,-1,-1,-1,-1,-1],"split_conditions":[8.89E2,1.59995E1,1E0,2E0,-3.32737E-3,5E1,-2.058506E-4,1.31996E1,-9.6030236E-4,2E0,3.7104608E-3,4.0025712E-4,-1.3546944E-4,1.1135102E-3,1.745224E-4],"split_indices":[6,2,1,0,0,5,0,2,0,0,0,0,0,0,0],"split_type":[0,0,0,0,0,0,0,0,0,0,0,0,0,0,0],"sum_hessian":[8E0,4E0,4E0,3E0,1E0,3E0,1E0,2E0,1E0,2E0,1E0,1E0,1E0,1E0,1E0],"tree_param":{"num_deleted":"0","num_feature":"7","num_nodes":"15","size_leaf_vector":"1"}},{"base_weights":[4.8457252E-4,-4.559326E-3,5.4315566E-3,-9.85384E-4,-2.8282644E-3,7.081032E-3,-1.7495156E-4,5.000432E-4,-8.1624987E-4,2.4325054E-3,3.153992E-3,3.4017564E-4,-1.1515618E-4,9.464264E-4,1.48201E-4],"categories":[],"categories_nodes":[],"categories_segments":[],"categories_sizes":[],"default_left":[0,0,0,0,0,0,0,0,0,0,0,0,0,0,0],"id":34,"left_children":[1,3,5,7,-1,9,-1,11,-1,13,-1,-1,-1,-1,-1],"loss_changes":[2.4933304E-4,7.770395E-5,5.3735188E-5,1.1672066E-5,0E0,3.824639E-5,0E0,2.1161015E-6,0E0,2.6417856E-6,0E0,0E0,0E0,0E0,0E0],"parents":[2147483647,0,0,1,1,2,2,3,3,5,5,7,7,9,9],"right_children":[2,4,6,8,-1,10,-1,12,-1,14,-1,-1,-1,-1,-1],"split_conditions":[8.89E2,1.59995E1,1E0,2E0,-2.8282644E-3,5E1,-1.7495156E-4,1.31996E1,-8.1624987E-4,2E0,3.153992E-3,3.4017564E-4,-1.1515618E-4,9.464264E-4,1.48201E-4],"split_indices":[6,2,1,0,0,5,0,2,0,0,0,0,0,0,0],"split_type":[0,0,0,0,0,0,0,0,0,0,0,0,0,0,0],"sum_hessian":[8E0,4E0,4E0,3E0,1E0,3E0,1E0,2E0,1E0,2E0,1E0,1E0,1E0,1E0,1E0],"tree_param":{"num_deleted":"0","num_feature":"7","num_nodes":"15","size_leaf_vector":"1"}},{"base_weights":[4.1188134E-4,-3.8751601E-3,4.6165464E-3,-8.3732605E-4,-2.4039745E-3,6.0186386E-3,-1.487732E-4,4.2533875E-4,-6.9379807E-4,2.067566E-3,2.6807785E-3,2.8924944E-4,-9.784699E-5,8.045197E-4,1.2588501E-4],"categories":[],"categories_nodes":[],"categories_segments":[],"categories_sizes":[],"default_left":[0,0,0,0,0,0,0,0,0,0,0,0,0,0,0],"id":35,"left_children":[1,3,5,7,-1,9,-1,11,-1,13,-1,-1,-1,-1,-1],"loss_changes":[1.8012003E-4,5.6144432E-5,3.8825383E-5,8.435074E-6,0E0,2.763007E-5,0E0,1.5292444E-6,0E0,1.9110448E-6,0E0,0E0,0E0,0E0,0E0],"parents":[2147483647,0,0,1,1,2,2,3,3,5,5,7,7,9,9],"right_children":[2,4,6,8,-1,10,-1,12,-1,14,-1,-1,-1,-1,-1],"split_conditions":[8.89E2,1.59995E1,1E0,2E0,-2.4039745E-3,5E1,-1.487732E-4,1.31996E1,-6.9379807E-4,2E0,2.6807785E-3,2.8924944E-4,-9.784699E-5,8.045197E-4,1.2588501E-4],"split_indices":[6,2,1,0,0,5,0,2,0,0,0,0,0,0,0],"split_type":[0,0,0,0,0,0,0,0,0,0,0,0,0,0,0],"sum_hessian":[8E0,4E0,4E0,3E0,1E0,3E0,1E0,2E0,1E0,2E0,1E0,1E0,1E0,1E0,1E0],"tree_param":{"num_deleted":"0","num_feature":"7","num_nodes":"15","size_leaf_vector":"1"}},{"base_weights":[3.4999847E-4,-3.2938004E-3,3.9237975E-3,-7.1167946E-4,-2.0433427E-3,5.115509E-3,-1.2645722E-4,3.6144257E-4,-5.896569E-4,1.7573038E-3,2.2785189E-3,2.4576188E-4,-8.311272E-5,6.837845E-4,1.0700226E-4],"categories":[],"categories_nodes":[],"categories_segments":[],"categories_sizes":[],"default_left":[0,0,0,0,0,0,0,0,0,0,0,0,0,0,0],"id":36,"left_children":[1,3,5,7,-1,9,-1,11,-1,13,-1,-1,-1,-1,-1],"loss_changes":[1.3012404E-4,4.056366E-5,2.8048162E-5,6.0925313E-6,0E0,1.9960557E-5,0E0,1.1037805E-6,0E0,1.3803319E-6,0E0,0E0,0E0,0E0,0E0],"parents":[2147483647,0,0,1,1,2,2,3,3,5,5,7,7,9,9],"right_children":[2,4,6,8,-1,10,-1,12,-1,14,-1,-1,-1,-1,-1],"split_conditions":[8.89E2,1.59995E1,1E0,2E0,-2.0433427E-3,5E1,-1.2645722E-4,1.31996E1,-5.896569E-4,2E0,2.2785189E-3,2.4576188E-4,-8.311272E-5,6.837845E-4,1.0700226E-4],"split_indices":[6,2,1,0,0,5,0,2,0,0,0,0,0,0,0],"split_type":[0,0,0,0,0,0,0,0,0,0,0,0,0,0,0],"sum_hessian":[8E0,4E0,4E0,3E0,1E0,3E0,1E0,2E0,1E0,2E0,1E0,1E0,1E0,1E0,1E0],"tree_param":{"num_deleted":"0","num_feature":"7","num_nodes":"15","size_leaf_vector":"1"}},{"base_weights":[2.975464E-4,-2.799797E-3,3.3353805E-3,-6.0510635E-4,-1.736784E-3,4.348278E-3,-1.0743141E-4,9.2124945E-5,-5.0125126E-4,4.4822693E-4,1.9366265E-3],"categories":[],"categories_nodes":[],"categories_segments":[],"categories_sizes":[],"default_left":[0,0,0,0,0,0,0,0,0,0,0],"id":37,"left_children":[1,3,5,7,-1,9,-1,-1,-1,-1,-1],"loss_changes":[9.402133E-5,2.9301824E-5,2.0262749E-5,4.4016806E-6,0E0,1.44117585E-5,0E0,0E0,0E0,0E0,0E0],"parents":[2147483647,0,0,1,1,2,2,3,3,5,5],"right_children":[2,4,6,8,-1,10,-1,-1,-1,-1,-1],"split_conditions":[8.89E2,1.59995E1,1E0,2E0,-1.736784E-3,5E1,-1.0743141E-4,9.2124945E-5,-5.0125126E-4,4.4822693E-4,1.9366265E-3],"split_indices":[6,2,1,0,0,5,0,0,0,0,0],"split_type":[0,0,0,0,0,0,0,0,0,0,0],"sum_hessian":[8E0,4E0,4E0,3E0,1E0,3E0,1E0,2E0,1E0,2E0,1E0],"tree_param":{"num_deleted":"0","num_feature":"7","num_nodes":"11","size_leaf_vector":"1"}},{"base_weights":[2.2305382E-4,-2.3889542E-3,2.790451E-3,-5.2571297E-4,-1.476288E-3,3.6401749E-3,-9.126664E-5,1.9512177E-4,-3.4036636E-4,1.1952718E-3,1.6462327E-3,5.1412586E-4,2.3746492E-5],"categories":[],"categories_nodes":[],"categories_segments":[],"categories_sizes":[],"default_left":[0,0,0,0,0,0,0,0,0,0,0,0,0],"id":38,"left_children":[1,3,5,7,-1,9,-1,-1,-1,11,-1,-1,-1],"loss_changes":[6.702082E-5,2.1001671E-5,1.4255511E-5,3.6022013E-6,0E0,1.1506574E-5,0E0,0E0,0E0,1.6004037E-6,0E0,0E0,0E0],"parents":[2147483647,0,0,1,1,2,2,3,3,5,5,9,9],"right_children":[2,4,6,8,-1,10,-1,-1,-1,12,-1,-1,-1],"split_conditions":[8.89E2,1.59995E1,1E0,9E1,-1.476288E-3,5E1,-9.126664E-5,1.9512177E-4,-3.4036636E-4,2E0,1.6462327E-3,5.1412586E-4,2.3746492E-5],"split_indices":[6,2,1,4,0,5,0,0,0,0,0,0,0],"split_type":[0,0,0,0,0,0,0,0,0,0,0,0,0],"sum_hessian":[8E0,4E0,4E0,3E0,1E0,3E0,1E0,1E0,2E0,2E0,1E0,1E0,1E0],"tree_param":{"num_deleted":"0","num_feature":"7","num_nodes":"13","size_leaf_vector":"1"}},{"base_weights":[2.0864274E-4,1.280427E-3,-1.2548447E-3,2.2099812E-3,-3.016472E-4,7.8620913E-4,1.3993264E-3,4.368782E-4,7.638932E-5],"categories":[],"categories_nodes":[],"categories_segments":[],"categories_sizes":[],"default_left":[0,0,0,0,0,0,0,0,0],"id":39,"left_children":[1,3,-1,5,-1,7,-1,-1,-1],"loss_changes":[4.7716054E-5,1.9221192E-5,0E0,1.7300166E-5,0E0,1.4101145E-6,0E0,0E0,0E0],"parents":[2147483647,0,0,1,1,3,3,5,5],"right_children":[2,4,-1,6,-1,8,-1,-1,-1],"split_conditions":[1.59995E1,9E1,-1.2548447E-3,1.038E3,-3.016472E-4,4E1,1.3993264E-3,4.368782E-4,7.638932E-5],"split_indices":[2,5,0,6,0,5,0,0,0],"split_type":[0,0,0,0,0,0,0,0,0],"sum_hessian":[8E0,7E0,1E0,5E0,2E0,4E0,1E0,1E0,3E0],"tree_param":{"num_deleted":"0","num_feature":"7","num_nodes":"9","size_leaf_vector":"1"}},{"base_weights":[1.8554264E-4,-1.7156601E-3,2.0496368E-3,-3.669262E-4,-1.0665894E-3,2.6159286E-3,-3.232956E-5,1.5449524E-4,-2.4976733E-4,2.5348665E-4,1.1893273E-3],"categories":[],"categories_nodes":[],"categories_segments":[],"categories_sizes":[],"default_left":[0,0,0,0,0,0,0,0,0,0,0],"id":40,"left_children":[1,3,5,7,-1,9,-1,-1,-1,-1,-1],"loss_changes":[3.5412668E-5,1.1101377E-5,6.3905027E-6,2.0713348E-6,0E0,6.202834E-6,0E0,0E0,0E0,0E0,0E0],"parents":[2147483647,0,0,1,1,2,2,3,3,5,5],"right_children":[2,4,6,8,-1,10,-1,-1,-1,-1,-1],"split_conditions":[8.89E2,1.59995E1,1E0,9E1,-1.0665894E-3,5E1,-3.232956E-5,1.5449524E-4,-2.4976733E-4,2.5348665E-4,1.1893273E-3],"split_indices":[6,2,1,4,0,5,0,0,0,0,0],"split_type":[0,0,0,0,0,0,0,0,0,0,0],"sum_hessian":[8E0,4E0,4E0,3E0,1E0,3E0,1E0,1E0,2E0,2E0,1E0],"tree_param":{"num_deleted":"0","num_feature":"7","num_nodes":"11","size_leaf_vector":"1"}},{"base_weights":[1.5735626E-4,9.325743E-4,-9.066582E-4,1.5986761E-3,-2.1314622E-4,1.7120363E-4,1.0107994E-3],"categories":[],"categories_nodes":[],"categories_segments":[],"categories_sizes":[],"default_left":[0,0,0,0,0,0,0],"id":41,"left_children":[1,3,-1,5,-1,-1,-1],"loss_changes":[2.500202E-5,9.89141E-6,0E0,8.998568E-6,0E0,0E0,0E0],"parents":[2147483647,0,0,1,1,3,3],"right_children":[2,4,-1,6,-1,-1,-1],"split_conditions":[1.59995E1,9E1,-9.066582E-4,1.038E3,-2.1314622E-4,1.7120363E-4,1.0107994E-3],"split_indices":[2,5,0,6,0,0,0],"split_type":[0,0,0,0,0,0,0],"sum_hessian":[8E0,7E0,1E0,5E0,2E0,4E0,1E0],"tree_param":{"num_deleted":"0","num_feature":"7","num_nodes":"7","size_leaf_vector":"1"}},{"base_weights":[1.1698405E-4,-1.2779236E-3,1.4884949E-3,-3.130436E-4,-7.706166E-4,1.8529892E-3,4.577637E-6,4.8255923E-5,-2.6021004E-4,5.613963E-4,8.591652E-4,3.0755997E-4,-5.4931643E-5],"categories":[],"categories_nodes":[],"categories_segments":[],"categories_sizes":[],"default_left":[0,0,0,0,0,0,0,0,0,0,0,0,0],"id":42,"left_children":[1,3,5,7,-1,9,-1,-1,-1,11,-1,-1,-1],"loss_changes":[1.9120362E-5,5.423204E-6,2.6566568E-6,1.1902863E-6,0E0,3.614885E-6,0E0,0E0,0E0,1.2236276E-6,0E0,0E0,0E0],"parents":[2147483647,0,0,1,1,2,2,3,3,5,5,9,9],"right_children":[2,4,6,8,-1,10,-1,-1,-1,12,-1,-1,-1],"split_conditions":[8.89E2,1.59995E1,1E0,2E0,-7.706166E-4,5E1,4.577637E-6,4.8255923E-5,-2.6021004E-4,2E0,8.591652E-4,3.0755997E-4,-5.4931643E-5],"split_indices":[6,2,1,0,0,5,0,0,0,0,0,0,0],"split_type":[0,0,0,0,0,0,0,0,0,0,0,0,0],"sum_hessian":[8E0,4E0,4E0,3E0,1E0,3E0,1E0,2E0,1E0,2E0,1E0,1E0,1E0],"tree_param":{"num_deleted":"0","num_feature":"7","num_nodes":"13","size_leaf_vector":"1"}},{"base_weights":[9.695689E-5,-1.0910034E-3,1.2655258E-3,-8.1610684E-5,-6.5503124E-4,1.57547E-3,3.862381E-6,1.4324188E-4,7.304192E-4],"categories":[],"categories_nodes":[],"categories_segments":[],"categories_sizes":[],"default_left":[0,0,0,0,0,0,0,0,0],"id":43,"left_children":[1,3,5,-1,-1,7,-1,-1,-1],"loss_changes":[1.38746145E-5,3.879368E-6,1.9209756E-6,0E0,0E0,2.611344E-6,0E0,0E0,0E0],"parents":[2147483647,0,0,1,1,2,2,5,5],"right_children":[2,4,6,-1,-1,8,-1,-1,-1],"split_conditions":[8.89E2,1.59995E1,1E0,-8.1610684E-5,-6.5503124E-4,5E1,3.862381E-6,1.4324188E-4,7.304192E-4],"split_indices":[6,2,1,0,0,5,0,0,0],"split_type":[0,0,0,0,0,0,0,0,0],"sum_hessian":[8E0,4E0,4E0,3E0,1E0,3E0,1E0,2E0,1E0],"tree_param":{"num_deleted":"0","num_feature":"7","num_nodes":"9","size_leaf_vector":"1"}},{"base_weights":[8.371141E-5,-9.10759E-4,1.0614395E-3,1.10721594E-4,-3.9689543E-4,1.3213158E-3,3.2901764E-6,1.1463166E-4,6.20842E-4],"categories":[],"categories_nodes":[],"categories_segments":[],"categories_sizes":[],"default_left":[0,0,0,0,0,0,0,0,0],"id":44,"left_children":[1,3,5,-1,-1,7,-1,-1,-1],"loss_changes":[9.717611E-6,3.1261725E-6,1.3504728E-6,0E0,0E0,2.0199514E-6,0E0,0E0,0E0],"parents":[2147483647,0,0,1,1,2,2,5,5],"right_children":[2,4,6,-1,-1,8,-1,-1,-1],"split_conditions":[8.89E2,9E1,1E0,1.10721594E-4,-3.9689543E-4,5E1,3.2901764E-6,1.1463166E-4,6.20842E-4],"split_indices":[6,4,1,0,0,5,0,0,0],"split_type":[0,0,0,0,0,0,0,0,0],"sum_hessian":[8E0,4E0,4E0,1E0,3E0,3E0,1E0,2E0,1E0],"tree_param":{"num_deleted":"0","num_feature":"7","num_nodes":"9","size_leaf_vector":"1"}},{"base_weights":[1.0882484E-4,5.3679943E-4,-4.972458E-4,8.78493E-4,-9.765626E-5,1.0522843E-4,5.2757264E-4],"categories":[],"categories_nodes":[],"categories_segments":[],"categories_sizes":[],"default_left":[0,0,0,0,0,0,0],"id":45,"left_children":[1,3,-1,5,-1,-1,-1],"loss_changes":[7.693163E-6,2.6431621E-6,0E0,2.1698434E-6,0E0,0E0,0E0],"parents":[2147483647,0,0,1,1,3,3],"right_children":[2,4,-1,6,-1,-1,-1],"split_conditions":[1.59995E1,9E1,-4.972458E-4,1.038E3,-9.765626E-5,1.0522843E-4,5.2757264E-4],"split_indices":[2,5,0,6,0,0,0],"split_type":[0,0,0,0,0,0,0],"sum_hessian":[8E0,7E0,1E0,5E0,2E0,4E0,1E0],"tree_param":{"num_deleted":"0","num_feature":"7","num_nodes":"7","size_leaf_vector":"1"}},{"base_weights":[8.032057E-5,4.426241E-4,-4.2271617E-4,7.2050095E-4,-7.82013E-5,8.0051424E-5,4.483223E-4],"categories":[],"categories_nodes":[],"categories_segments":[],"categories_sizes":[],"default_left":[0,0,0,0,0,0,0],"id":46,"left_children":[1,3,-1,5,-1,-1,-1],"loss_changes":[5.480131E-6,1.7512488E-6,0E0,1.7077916E-6,0E0,0E0,0E0],"parents":[2147483647,0,0,1,1,3,3],"right_children":[2,4,-1,6,-1,-1,-1],"split_conditions":[1.59995E1,9E1,-4.2271617E-4,1.038E3,-7.82013E-5,8.0051424E-5,4.483223E-4],"split_indices":[2,5,0,6,0,0,0],"split_type":[0,0,0,0,0,0,0],"sum_hessian":[8E0,7E0,1E0,5E0,2E0,4E0,1E0],"tree_param":{"num_deleted":"0","num_feature":"7","num_nodes":"7","size_leaf_vector":"1"}},{"base_weights":[5.923377E-5,3.6609173E-4,-3.593445E-4,3.226598E-5,2.735138E-4,1.325369E-4,-1.5735626E-4],"categories":[],"categories_nodes":[],"categories_segments":[],"categories_sizes":[],"default_left":[0,0,0,0,0,0,0],"id":47,"left_children":[1,3,-1,5,-1,-1,-1],"loss_changes":[3.9101287E-6,1.4277213E-6,0E0,1.5998322E-6,0E0,0E0,0E0],"parents":[2147483647,0,0,1,1,3,3],"right_children":[2,4,-1,6,-1,-1,-1],"split_conditions":[1.59995E1,1.038E3,-3.593445E-4,2E0,2.735138E-4,1.325369E-4,-1.5735626E-4],"split_indices":[2,6,0,0,0,0,0],"split_type":[0,0,0,0,0,0,0],"sum_hessian":[8E0,7E0,1E0,5E0,2E0,3E0,2E0],"tree_param":{"num_deleted":"0","num_feature":"7","num_nodes":"7","size_leaf_vector":"1"}},{"base_weights":[2.9563904E-5,-1.4980316E-4,1.6576768E-4],"categories":[],"categories_nodes":[],"categories_segments":[],"categories_sizes":[],"default_left":[0,0,0],"id":48,"left_children":[1,-1,-1],"loss_changes":[2.7654619E-6,0E0,0E0],"parents":[2147483647,0,0],"right_children":[2,-1,-1],"split_conditions":[8.89E2,-1.4980316E-4,1.6576768E-4],"split_indices":[6,0,0],"split_type":[0,0,0],"sum_hessian":[8E0,4E0,4E0],"tree_param":{"num_deleted":"0","num_feature":"7","num_nodes":"3","size_leaf_vector":"1"}},{"base_weights":[2.2464328E-5,7.83205E-5,-2.8295518E-4],"categories":[],"categories_nodes":[],"categories_segments":[],"categories_sizes":[],"default_left":[0,0,0],"id":49,"left_children":[1,-1,-1],"loss_changes":[2.3199034E-6,0E0,0E0],"parents":[2147483647,0,0],"right_children":[2,-1,-1],"split_conditions":[1.59995E1,7.83205E-5,-2.8295518E-4],"split_indices":[2,0,0],"split_type":[0,0,0],"sum_hessian":[8E0,7E0,1E0],"tree_param":{"num_deleted":"0","num_feature":"7","num_nodes":"3","size_leaf_vector":"1"}},{"base_weights":[-6.887648E-6,5.7792666E-5,-2.4046899E-4],"categories":[],"categories_nodes":[],"categories_segments":[],"categories_sizes":[],"default_left":[0,0,0],"id":50,"left_children":[1,-1,-1],"loss_changes":[1.5814685E-6,0E0,0E0],"parents":[2147483647,0,0],"right_children":[2,-1,-1],"split_conditions":[1.59995E1,5.7792666E-5,-2.4046899E-4],"split_indices":[2,0,0],"split_type":[0,0,0],"sum_hessian":[8E0,7E0,1E0],"tree_param":{"num_deleted":"0","num_feature":"7","num_nodes":"3","size_leaf_vector":"1"}},{"base_weights":[-2.5007459E-5,-2.5858197E-4,5.283356E-4,1.3017654E-4,-1.3389588E-4,2.9497148E-4,-5.7220463E-5],"categories":[],"categories_nodes":[],"categories_segments":[],"categories_sizes":[],"default_left":[0,0,0,0,0,0,0],"id":51,"left_children":[1,3,5,-1,-1,-1,-1],"loss_changes":[1.2998395E-6,1.1037308E-6,1.168859E-6,0E0,0E0,0E0,0E0],"parents":[2147483647,0,0,1,1,2,2],"right_children":[2,4,6,-1,-1,-1,-1],"split_conditions":[1.038E3,4E1,1E0,1.3017654E-4,-1.3389588E-4,2.9497148E-4,-5.7220463E-5],"split_indices":[6,5,1,0,0,0,0],"split_type":[0,0,0,0,0,0,0],"sum_hessian":[8E0,6E0,2E0,1E0,5E0,1E0,1E0],"tree_param":{"num_deleted":"0","num_feature":"7","num_nodes":"7","size_leaf_vector":"1"}},{"base_weights":[8.265178E-6],"categories":[],"categories_nodes":[],"categories_segments":[],"categories_sizes":[],"default_left":[0],"id":52,"left_children":[-1],"loss_changes":[0E0],"parents":[2147483647],"right_children":[-1],"split_conditions":[2.4795534E-6],"split_indices":[0],"split_type":[0],"sum_hessian":[8E0],"tree_param":{"num_deleted":"0","num_feature":"7","num_nodes":"1","size_leaf_vector":"1"}},{"base_weights":[6.1459014E-6],"categories":[],"categories_nodes":[],"categories_segments":[],"categories_sizes":[],"default_left":[0],"id":53,"left_children":[-1],"loss_changes":[0E0],"parents":[2147483647],"right_children":[-1],"split_conditions":[1.8437705E-6],"split_indices":[0],"split_type":[0],"sum_hessian":[8E0],"tree_param":{"num_deleted":"0","num_feature":"7","num_nodes":"1","size_leaf_vector":"1"}},{"base_weights":[4.45048E-6],"categories":[],"categories_nodes":[],"categories_segments":[],"categories_sizes":[],"default_left":[0],"id":54,"left_children":[-1],"loss_changes":[0E0],"parents":[2147483647],"right_children":[-1],"split_conditions":[1.335144E-6],"split_indices":[0],"split_type":[0],"sum_hessian":[8E0],"tree_param":{"num_deleted":"0","num_feature":"7","num_nodes":"1","size_leaf_vector":"1"}},{"base_weights":[3.1789143E-6],"categories":[],"categories_nodes":[],"categories_segments":[],"categories_sizes":[],"default_left":[0],"id":55,"left_children":[-1],"loss_changes":[0E0],"parents":[2147483647],"right_children":[-1],"split_conditions":[9.536743E-7],"split_indices":[0],"split_type":[0],"sum_hessian":[8E0],"tree_param":{"num_deleted":"0","num_feature":"7","num_nodes":"1","size_leaf_vector":"1"}},{"base_weights":[2.1192764E-6],"categories":[],"categories_nodes":[],"categories_segments":[],"categories_sizes":[],"default_left":[0],"id":56,"left_children":[-1],"loss_changes":[0E0],"parents":[2147483647],"right_children":[-1],"split_conditions":[6.3578295E-7],"split_indices":[0],"split_type":[0],"sum_hessian":[8E0],"tree_param":{"num_deleted":"0","num_feature":"7","num_nodes":"1","size_leaf_vector":"1"}},{"base_weights":[1.695421E-6],"categories":[],"categories_nodes":[],"categories_segments":[],"categories_sizes":[],"default_left":[0],"id":57,"left_children":[-1],"loss_changes":[0E0],"parents":[2147483647],"right_children":[-1],"split_conditions":[5.0862633E-7],"split_indices":[0],"split_type":[0],"sum_hessian":[8E0],"tree_param":{"num_deleted":"0","num_feature":"7","num_nodes":"1","size_leaf_vector":"1"}},{"base_weights":[1.2715658E-6],"categories":[],"categories_nodes":[],"categories_segments":[],"categories_sizes":[],"default_left":[0],"id":58,"left_children":[-1],"loss_changes":[0E0],"parents":[2147483647],"right_children":[-1],"split_conditions":[3.8146976E-7],"split_indices":[0],"split_type":[0],"sum_hessian":[8E0],"tree_param":{"num_deleted":"0","num_feature":"7","num_nodes":"1","size_leaf_vector":"1"}},{"base_weights":[1.2715658E-6],"categories":[],"categories_nodes":[],"categories_segments":[],"categories_sizes":[],"default_left":[0],"id":59,"left_children":[-1],"loss_changes":[0E0],"parents":[2147483647],"right_children":[-1],"split_conditions":[3.8146976E-7],"split_indices":[0],"split_type":[0],"sum_hessian":[8E0],"tree_param":{"num_deleted":"0","num_feature":"7","num_nodes":"1","size_leaf_vector":"1"}},{"base_weights":[1.2715658E-6],"categories":[],"categories_nodes":[],"categories_segments":[],"categories_sizes":[],"default_left":[0],"id":60,"left_children":[-1],"loss_changes":[0E0],"parents":[2147483647],"right_children":[-1],"split_conditions":[3.8146976E-7],"split_indices":[0],"split_type":[0],"sum_hessian":[8E0],"tree_param":{"num_deleted":"0","num_feature":"7","num_nodes":"1","size_leaf_vector":"1"}},{"base_weights":[1.2715658E-6],"categories":[],"categories_nodes":[],"categories_segments":[],"categories_sizes":[],"default_left":[0],"id":61,"left_children":[-1],"loss_changes":[0E0],"parents":[2147483647],"right_children":[-1],"split_conditions":[3.8146976E-7],"split_indices":[0],"split_type":[0],"sum_hessian":[8E0],"tree_param":{"num_deleted":"0","num_feature":"7","num_nodes":"1","size_leaf_vector":"1"}},{"base_weights":[1.2715658E-6],"categories":[],"categories_nodes":[],"categories_segments":[],"categories_sizes":[],"default_left":[0],"id":62,"left_children":[-1],"loss_changes":[0E0],"parents":[2147483647],"right_children":[-1],"split_conditions":[3.8146976E-7],"split_indices":[0],"split_type":[0],"sum_hessian":[8E0],"tree_param":{"num_deleted":"0","num_feature":"7","num_nodes":"1","size_leaf_vector":"1"}},{"base_weights":[1.2715658E-6],"categories":[],"categories_nodes":[],"categories_segments":[],"categories_sizes":[],"default_left":[0],"id":63,"left_children":[-1],"loss_changes":[0E0],"parents":[2147483647],"right_children":[-1],"split_conditions":[3.8146976E-7],"split_indices":[0],"split_type":[0],"sum_hessian":[8E0],"tree_param":{"num_deleted":"0","num_feature":"7","num_nodes":"1","size_leaf_vector":"1"}},{"base_weights":[1.2715658E-6],"categories":[],"categories_nodes":[],"categories_segments":[],"categories_sizes":[],"default_left":[0],"id":64,"left_children":[-1],"loss_changes":[0E0],"parents":[2147483647],"right_children":[-1],"split_conditions":[3.8146976E-7],"split_indices":[0],"split_type":[0],"sum_hessian":[8E0],"tree_param":{"num_deleted":"0","num_feature":"7","num_nodes":"1","size_leaf_vector":"1"}},{"base_weights":[1.2715658E-6],"categories":[],"categories_nodes":[],"categories_segments":[],"categories_sizes":[],"default_left":[0],"id":65,"left_children":[-1],"loss_changes":[0E0],"parents":[2147483647],"right_children":[-1],"split_conditions":[3.8146976E-7],"split_indices":[0],"split_type":[0],"sum_hessian":[8E0],"tree_param":{"num_deleted":"0","num_feature":"7","num_nodes":"1","size_leaf_vector":"1"}},{"base_weights":[1.2715658E-6],"categories":[],"categories_nodes":[],"categories_segments":[],"categories_sizes":[],"default_left":[0],"id":66,"left_children":[-1],"loss_changes":[0E0],"parents":[2147483647],"right_children":[-1],"split_conditions":[3.8146976E-7],"split_indices":[0],"split_type":[0],"sum_hessian":[8E0],"tree_param":{"num_deleted":"0","num_feature":"7","num_nodes":"1","size_leaf_vector":"1"}},{"base_weights":[1.2715658E-6],"categories":[],"categories_nodes":[],"categories_segments":[],"categories_sizes":[],"default_left":[0],"id":67,"left_children":[-1],"loss_changes":[0E0],"parents":[2147483647],"right_children":[-1],"split_conditions":[3.8146976E-7],"split_indices":[0],"split_type":[0],"sum_hessian":[8E0],"tree_param":{"num_deleted":"0","num_feature":"7","num_nodes":"1","size_leaf_vector":"1"}},{"base_weights":[1.2715658E-6],"categories":[],"categories_nodes":[],"categories_segments":[],"categories_sizes":[],"default_left":[0],"id":68,"left_children":[-1],"loss_changes":[0E0],"parents":[2147483647],"right_children":[-1],"split_conditions":[3.8146976E-7],"split_indices":[0],"split_type":[0],"sum_hessian":[8E0],"tree_param":{"num_deleted":"0","num_feature":"7","num_nodes":"1","size_leaf_vector":"1"}},{"base_weights":[1.2715658E-6],"categories":[],"categories_nodes":[],"categories_segments":[],"categories_sizes":[],"default_left":[0],"id":69,"left_children":[-1],"loss_changes":[0E0],"parents":[2147483647],"right_children":[-1],"split_conditions":[3.8146976E-7],"split_indices":[0],"split_type":[0],"sum_hessian":[8E0],"tree_param":{"num_deleted":"0","num_feature":"7","num_nodes":"1","size_leaf_vector":"1"}},{"base_weights":[1.2715658E-6],"categories":[],"categories_nodes":[],"categories_segments":[],"categories_sizes":[],"default_left":[0],"id":70,"left_children":[-1],"loss_changes":[0E0],"parents":[2147483647],"right_children":[-1],"split_conditions":[3.8146976E-7],"split_indices":[0],"split_type":[0],"sum_hessian":[8E0],"tree_param":{"num_deleted":"0","num_feature":"7","num_nodes":"1","size_leaf_vector":"1"}},{"base_weights":[1.2715658E-6],"categories":[],"categories_nodes":[],"categories_segments":[],"categories_sizes":[],"default_left":[0],"id":71,"left_children":[-1],"loss_changes":[0E0],"parents":[2147483647],"right_children":[-1],"split_conditions":[3.8146976E-7],"split_indices":[0],"split_type":[0],"sum_hessian":[8E0],"tree_param":{"num_deleted":"0","num_feature":"7","num_nodes":"1","size_leaf_vector":"1"}},{"base_weights":[1.2715658E-6],"categories":[],"categories_nodes":[],"categories_segments":[],"categories_sizes":[],"default_left":[0],"id":72,"left_children":[-1],"loss_changes":[0E0],"parents":[2147483647],"right_children":[-1],"split_conditions":[3.8146976E-7],"split_indices":[0],"split_type":[0],"sum_hessian":[8E0],"tree_param":{"num_deleted":"0","num_feature":"7","num_nodes":"1","size_leaf_vector":"1"}},{"base_weights":[1.2715658E-6],"categories":[],"categories_nodes":[],"categories_segments":[],"categories_sizes":[],"default_left":[0],"id":73,"left_children":[-1],"loss_changes":[0E0],"parents":[2147483647],"right_children":[-1],"split_conditions":[3.8146976E-7],"split_indices":[0],"split_type":[0],"sum_hessian":[8E0],"tree_param":{"num_deleted":"0","num_feature":"7","num_nodes":"1","size_leaf_vector":"1"}},{"base_weights":[1.2715658E-6],"categories":[],"categories_nodes":[],"categories_segments":[],"categories_sizes":[],"default_left":[0],"id":74,"left_children":[-1],"loss_changes":[0E0],"parents":[2147483647],"right_children":[-1],"split_conditions":[3.8146976E-7],"split_indices":[0],"split_type":[0],"sum_hessian":[8E0],"tree_param":{"num_deleted":"0","num_feature":"7","num_nodes":"1","size_leaf_vector":"1"}},{"base_weights":[1.2715658E-6],"categories":[],"categories_nodes":[],"categories_segments":[],"categories_sizes":[],"default_left":[0],"id":75,"left_children":[-1],"loss_changes":[0E0],"parents":[2147483647],"right_children":[-1],"split_conditions":[3.8146976E-7],"split_indices":[0],"split_type":[0],"sum_hessian":[8E0],"tree_param":{"num_deleted":"0","num_feature":"7","num_nodes":"1","size_leaf_vector":"1"}},{"base_weights":[1.2715658E-6],"categories":[],"categories_nodes":[],"categories_segments":[],"categories_sizes":[],"default_left":[0],"id":76,"left_children":[-1],"loss_changes":[0E0],"parents":[2147483647],"right_children":[-1],"split_conditions":[3.8146976E-7],"split_indices":[0],"split_type":[0],"sum_hessian":[8E0],"tree_param":{"num_deleted":"0","num_feature":"7","num_nodes":"1","size_leaf_vector":"1"}},{"base_weights":[1.2715658E-6],"categories":[],"categories_nodes":[],"categories_segments":[],"categories_sizes":[],"default_left":[0],"id":77,"left_children":[-1],"loss_changes":[0E0],"parents":[2147483647],"right_children":[-1],"split_conditions":[3.8146976E-7],"split_indices":[0],"split_type":[0],"sum_hessian":[8E0],"tree_param":{"num_deleted":"0","num_feature":"7","num_nodes":"1","size_leaf_vector":"1"}},{"base_weights":[1.2715658E-6],"categories":[],"categories_nodes":[],"categories_segments":[],"categories_sizes":[],"default_left":[0],"id":78,"left_children":[-1],"loss_changes":[0E0],"parents":[2147483647],"right_children":[-1],"split_conditions":[3.8146976E-7],"split_indices":[0],"split_type":[0],"sum_hessian":[8E0],"tree_param":{"num_deleted":"0","num_feature":"7","num_nodes":"1","size_leaf_vector":"1"}},{"base_weights":[1.2715658E-6],"categories":[],"categories_nodes":[],"categories_segments":[],"categories_sizes":[],"default_left":[0],"id":79,"left_children":[-1],"loss_changes":[0E0],"parents":[2147483647],"right_children":[-1],"split_conditions":[3.8146976E-7],"split_indices":[0],"split_type":[0],"sum_hessian":[8E0],"tree_param":{"num_deleted":"0","num_feature":"7","num_nodes":"1","size_leaf_vector":"1"}},{"base_weights":[1.2715658E-6],"categories":[],"categories_nodes":[],"categories_segments":[],"categories_sizes":[],"default_left":[0],"id":80,"left_children":[-1],"loss_changes":[0E0],"parents":[2147483647],"right_children":[-1],"split_conditions":[3.8146976E-7],"split_indices":[0],"split_type":[0],"sum_hessian":[8E0],"tree_param":{"num_deleted":"0","num_feature":"7","num_nodes":"1","size_leaf_vector":"1"}},{"base_weights":[1.2715658E-6],"categories":[],"categories_nodes":[],"categories_segments":[],"categories_sizes":[],"default_left":[0],"id":81,"left_children":[-1],"loss_changes":[0E0],"parents":[2147483647],"right_children":[-1],"split_conditions":[3.8146976E-7],"split_indices":[0],"split_type":[0],"sum_hessian":[8E0],"tree_param":{"num_deleted":"0","num_feature":"7","num_nodes":"1","size_leaf_vector":"1"}},{"base_weights":[1.2715658E-6],"categories":[],"categories_nodes":[],"categories_segments":[],"categories_sizes":[],"default_left":[0],"id":82,"left_children":[-1],"loss_changes":[0E0],"parents":[2147483647],"right_children":[-1],"split_conditions":[3.8146976E-7],"split_indices":[0],"split_type":[0],"sum_hessian":[8E0],"tree_param":{"num_deleted":"0","num_feature":"7","num_nodes":"1","size_leaf_vector":"1"}},{"base_weights":[1.2715658E-6],"categories":[],"categories_nodes":[],"categories_segments":[],"categories_sizes":[],"default_left":[0],"id":83,"left_children":[-1],"loss_changes":[0E0],"parents":[2147483647],"right_children":[-1],"split_conditions":[3.8146976E-7],"split_indices":[0],"split_type":[0],"sum_hessian":[8E0],"tree_param":{"num_deleted":"0","num_feature":"7","num_nodes":"1","size_leaf_vector":"1"}},{"base_weights":[1.2715658E-6],"categories":[],"categories_nodes":[],"categories_segments":[],"categories_sizes":[],"default_left":[0],"id":84,"left_children":[-1],"loss_changes":[0E0],"parents":[2147483647],"right_children":[-1],"split_conditions":[3.8146976E-7],"split_indices":[0],"split_type":[0],"sum_hessian":[8E0],"tree_param":{"num_deleted":"0","num_feature":"7","num_nodes":"1","size_leaf_vector":"1"}},{"base_weights":[1.2715658E-6],"categories":[],"categories_nodes":[],"categories_segments":[],"categories_sizes":[],"default_left":[0],"id":85,"left_children":[-1],"loss_changes":[0E0],"parents":[2147483647],"right_children":[-1],"split_conditions":[3.8146976E-7],"split_indices":[0],"split_type":[0],"sum_hessian":[8E0],"tree_param":{"num_deleted":"0","num_feature":"7","num_nodes":"1","size_leaf_vector":"1"}},{"base_weights":[1.2715658E-6],"categories":[],"categories_nodes":[],"categories_segments":[],"categories_sizes":[],"default_left":[0],"id":86,"left_children":[-1],"loss_changes":[0E0],"parents":[2147483647],"right_children":[-1],"split_conditions":[3.8146976E-7],"split_indices":[0],"split_type":[0],"sum_hessian":[8E0],"tree_param":{"num_deleted":"0","num_feature":"7","num_nodes":"1","size_leaf_vector":"1"}},{"base_weights":[1.2715658E-6],"categories":[],"categories_nodes":[],"categories_segments":[],"categories_sizes":[],"default_left":[0],"id":87,"left_children":[-1],"loss_changes":[0E0],"parents":[2147483647],"right_children":[-1],"split_conditions":[3.8146976E-7],"split_indices":[0],"split_type":[0],"sum_hessian":[8E0],"tree_param":{"num_deleted":"0","num_feature":"7","num_nodes":"1","size_leaf_vector":"1"}},{"base_weights":[1.2715658E-6],"categories":[],"categories_nodes":[],"categories_segments":[],"categories_sizes":[],"default_left":[0],"id":88,"left_children":[-1],"loss_changes":[0E0],"parents":[2147483647],"right_children":[-1],"split_conditions":[3.8146976E-7],"split_indices":[0],"split_type":[0],"sum_hessian":[8E0],"tree_param":{"num_deleted":"0","num_feature":"7","num_nodes":"1","size_leaf_vector":"1"}},{"base_weights":[1.2715658E-6],"categories":[],"categories_nodes":[],"categories_segments":[],"categories_sizes":[],"default_left":[0],"id":89,"left_children":[-1],"loss_changes":[0E0],"parents":[2147483647],"right_children":[-1],"split_conditions":[3.8146976E-7],"split_indices":[0],"split_type":[0],"sum_hessian":[8E0],"tree_param":{"num_deleted":"0","num_feature":"7","num_nodes":"1","size_leaf_vector":"1"}},{"base_weights":[1.2715658E-6],"categories":[],"categories_nodes":[],"categories_segments":[],"categories_sizes":[],"default_left":[0],"id":90,"left_children":[-1],"loss_changes":[0E0],"parents":[2147483647],"right_children":[-1],"split_conditions":[3.8146976E-7],"split_indices":[0],"split_type":[0],"sum_hessian":[8E0],"tree_param":{"num_deleted":"0","num_feature":"7","num_nodes":"1","size_leaf_vector":"1"}},{"base_weights":[1.2715658E-6],"categories":[],"categories_nodes":[],"categories_segments":[],"categories_sizes":[],"default_left":[0],"id":91,"left_children":[-1],"loss_changes":[0E0],"parents":[2147483647],"right_children":[-1],"split_conditions":[3.8146976E-7],"split_indices":[0],"split_type":[0],"sum_hessian":[8E0],"tree_param":{"num_deleted":"0","num_feature":"7","num_nodes":"1","size_leaf_vector":"1"}},{"base_weights":[1.2715658E-6],"categories":[],"categories_nodes":[],"categories_segments":[],"categories_sizes":[],"default_left":[0],"id":92,"left_children":[-1],"loss_changes":[0E0],"parents":[2147483647],"right_children":[-1],"split_conditions":[3.8146976E-7],"split_indices":[0],"split_type":[0],"sum_hessian":[8E0],"tree_param":{"num_deleted":"0","num_feature":"7","num_nodes":"1","size_leaf_vector":"1"}},{"base_weights":[1.2715658E-6],"categories":[],"categories_nodes":[],"categories_segments":[],"categories_sizes":[],"default_left":[0],"id":93,"left_children":[-1],"loss_changes":[0E0],"parents":[2147483647],"right_children":[-1],"split_conditions":[3.8146976E-7],"split_indices":[0],"split_type":[0],"sum_hessian":[8E0],"tree_param":{"num_deleted":"0","num_feature":"7","num_nodes":"1","size_leaf_vector":"1"}},{"base_weights":[1.2715658E-6],"categories":[],"categories_nodes":[],"categories_segments":[],"categories_sizes":[],"default_left":[0],"id":94,"left_children":[-1],"loss_changes":[0E0],"parents":[2147483647],"right_children":[-1],"split_conditions":[3.8146976E-7],"split_indices":[0],"split_type":[0],"sum_hessian":[8E0],"tree_param":{"num_deleted":"0","num_feature":"7","num_nodes":"1","size_leaf_vector":"1"}},{"base_weights":[1.2715658E-6],"categories":[],"categories_nodes":[],"categories_segments":[],"categories_sizes":[],"default_left":[0],"id":95,"left_children":[-1],"loss_changes":[0E0],"parents":[2147483647],"right_children":[-1],"split_conditions":[3.8146976E-7],"split_indices":[0],"split_type":[0],"sum_hessian":[8E0],"tree_param":{"num_deleted":"0","num_feature":"7","num_nodes":"1","size_leaf_vector":"1"}},{"base_weights":[1.2715658E-6],"categories":[],"categories_nodes":[],"categories_segments":[],"categories_sizes":[],"default_left":[0],"id":96,"left_children":[-1],"loss_changes":[0E0],"parents":[2147483647],"right_children":[-1],"split_conditions":[3.8146976E-7],"split_indices":[0],"split_type":[0],"sum_hessian":[8E0],"tree_param":{"num_deleted":"0","num_feature":"7","num_nodes":"1","size_leaf_vector":"1"}},{"base_weights":[1.2715658E-6],"categories":[],"categories_nodes":[],"categories_segments":[],"categories_sizes":[],"default_left":[0],"id":97,"left_children":[-1],"loss_changes":[0E0],"parents":[2147483647],"right_children":[-1],"split_conditions":[3.8146976E-7],"split_indices":[0],"split_type":[0],"sum_hessian":[8E0],"tree_param":{"num_deleted":"0","num_feature":"7","num_nodes":"1","size_leaf_vector":"1"}},{"base_weights":[1.2715658E-6],"categories":[],"categories_nodes":[],"categories_segments":[],"categories_sizes":[],"default_left":[0],"id":98,"left_children":[-1],"loss_changes":[0E0],"parents":[2147483647],"right_children":[-1],"split_conditions":[3.8146976E-7],"split_indices":[0],"split_type":[0],"sum_hessian":[8E0],"tree_param":{"num_deleted":"0","num_feature":"7","num_nodes":"1","size_leaf_vector":"1"}},{"base_weights":[1.2715658E-6],"categories":[],"categories_nodes":[],"categories_segments":[],"categories_sizes":[],"default_left":[0],"id":99,"left_children":[-1],"loss_changes":[0E0],"parents":[2147483647],"right_children":[-1],"split_conditions":[3.8146976E-7],"split_indices":[0],"split_type":[0],"sum_hessian":[8E0],"tree_param":{"num_deleted":"0","num_feature":"7","num_nodes":"1","size_leaf_vector":"1"}}]},"name":"gbtree"},"learner_model_param":{"base_score":"1.5249052E1","boost_from_average":"1","num_class":"0","num_feature":"7","num_target":"1"},"objective":{"name":"reg:squarederror","reg_loss_param":{"scale_pos_weight":"1"}}},"version":[2,0,2]}